2708 16
1358 0.45603067 0.2466205 0.29095706 -1.135537 0.73151445 -0.66696936 0.16715063 0.09479166 -0.6753884 0.018203355 -0.12568702 -0.86601084 0.34285766 0.8899143 -1.0071231 -0.5894878
1701 -0.077264115 -0.20041314 -0.24466912 -0.69068295 0.020461354 1.1570034 0.893262 -0.98784876 -0.2976509 0.19182917 -0.532025 -0.2721947 -0.046878938 0.2585064 -0.87130934 -1.4386476
306 0.45953652 -0.2571013 -0.056360677 0.39402404 0.0317587 0.22886334 -0.4643213 -0.90164185 -0.7657781 0.16913274 -0.53815293 -0.15442336 -0.8097001 1.0903779 -1.5281813 -0.8568223
1986 0.066751495 0.4383984 0.42342657 -0.37424248 0.26887923 0.59651566 0.816234 -0.89010286 -1.1225306 0.08433824 0.87502867 0.3455636 -0.019418 0.29041165 -0.7305323 -1.1652421
1810 0.36636516 -0.85696536 0.000638648 -0.10111615 -0.28618595 -0.10403289 0.21086444 -1.2066756 -0.20145701 1.0981101 0.4187361 0.22681107 0.18257952 0.17145261 -0.47555804 -1.8221592
2034 0.88649654 -0.89761823 -0.19350995 -0.23741078 0.10255688 0.9773862 -0.21176733 -1.4798278 -0.015306218 0.40941635 1.0821755 -0.71579194 -0.040199045 0.46766967 -0.4384876 -0.44344857
1623 -0.13760705 -0.31231716 0.2628386 0.12735407 -0.3658077 0.4173514 -1.2461084 -0.9365602 -0.85743845 0.071614616 -0.5240594 0.10969664 -0.44780287 0.9975689 -1.6011077 -0.98718166
88 0.19398347 -0.44303927 0.83775204 -0.312405 0.87650275 0.18081671 -0.3978625 -0.031008698 -1.7413398 1.152905 0.19012924 -0.66615725 -0.36701503 0.49461251 0.12736091 -0.31279427
1013 -0.5224213 0.093165785 -0.028787779 -0.19957688 0.7213635 -0.16374962 -0.49401212 -0.22031051 -1.3285233 0.3536722 -0.54890186 -0.85809916 -0.22323865 -0.07166303 -0.07508346 -1.7199692
598 0.61287826 0.3025072 0.68770146 -0.9388783 -0.7556622 1.2909777 0.45364314 -0.9225274 -0.4447146 0.39891478 -0.1756212 -0.075787544 0.55855525 -0.1487002 -1.0237613 -1.4106352
109 -0.047756664 -0.38752154 0.17881456 0.012681596 -0.19937651 0.49213645 -0.61190367 -0.6457024 -0.6530147 -0.8521591 -0.48630506 -0.27104503 -0.444861 0.78942066 -1.236222 -1.5414873
1914 0.3333489 0.3905129 0.09119 0.36198774 1.4099058 1.1622365 -1.0806684 -0.34833285 -0.57173055 0.23719573 -0.8705798 -1.6585556 -0.15827973 0.23285708 0.27958176 -1.37805
2045 0.20558228 -0.52424514 -0.18290427 -0.22809798 -0.22841443 0.11679593 -0.09655298 -0.8733148 -0.8361893 0.029654227 -0.79946285 -0.401428 -0.39834696 0.35353744 -1.6100327 -1.4083691
1072 1.3701453 0.40354148 0.42294767 0.33223668 0.0069764224 -0.17311248 -0.19024144 -0.2312339 -0.34216848 -0.19983779 -0.5259165 -0.73217684 -0.48101127 0.7095745 -1.2393036 -0.87192434
1542 -1.2140963 -0.33701903 1.5749813 -1.3755425 -0.019049563 0.92325544 0.6569586 -1.214406 0.5262956 1.1751827 -0.275664 -0.3042077 0.2674428 -0.22121783 -1.9548912 -1.1963683
733 -0.04908653 -0.04136244 0.5304796 -0.47137243 -0.17261727 0.19719765 0.11706486 -0.99467725 -0.44771415 1.2866882 1.2142564 -0.64459014 -1.3827317 -0.02049639 -0.038347047 -1.4157369
1224 0.44215825 0.2230311 0.6453657 0.05110973 1.0116031 -0.010474343 -0.5340944 -1.298446 -1.3090363 -0.4141401 -0.70375824 -0.6631071 -0.14711568 0.39025173 0.87323415 -1.2487673
1441 0.94509387 -0.10208984 0.5807033 0.45860177 1.3943236 0.08151249 -1.6487476 0.15933152 -0.18344086 1.2410502 -1.182762 0.16548711 0.9615602 0.20545557 -0.6510286 -1.8716687
1042 -0.75075305 0.48596543 1.3519695 -0.060757898 0.87008137 0.00083534943 -1.688327 -1.3524007 0.22342248 -0.31859404 0.71374047 -1.3515296 0.30492276 -0.24945572 -0.32667503 -0.8653414
1169 0.9198715 0.45371446 0.3235448 -1.3731945 0.82690537 -0.96320426 -0.073370084 0.3194145 -0.151633 -0.032532144 -0.032354176 -1.8362862 0.55276585 0.92383176 -0.776988 -1.3946031
1483 0.40220937 0.46025458 0.046702158 -0.24692053 0.39793292 0.23123111 -0.39666864 -0.20585012 -1.0248035 0.3783241 -0.90558374 -1.030961 0.582724 1.7259263 -1.7125113 -0.2276197
415 -0.7057579 -0.22447181 0.94768316 -0.6877227 0.35290343 0.12802058 -1.0092983 0.119984865 -1.7416085 1.0515696 0.2057058 -0.6411214 -0.17271413 0.6288524 0.24398403 -0.9093704
1131 0.4342109 -0.96297073 -0.16087234 -0.863888 1.2386159 -0.16156746 -0.6313055 -0.93781394 -0.7250479 -0.20314407 -0.24784331 -0.42168236 -0.20102009 0.082510374 0.6776927 -1.3172839
95 -0.6299638 -0.05577842 0.8050115 -0.09664603 0.38224164 -0.6242488 -1.47149 -0.20170808 -0.0015000055 0.01513669 0.80076957 -1.4397969 0.3142993 0.10775356 -0.31336966 -1.983297
963 -1.2527498 -0.25651556 0.42582503 -0.3851316 0.4751069 1.9521579 -0.43877494 -1.1733836 -0.37569648 -0.27067304 0.36911175 -0.4041133 0.061046626 2.2535412 -0.03887111 -0.90278506
118 -0.6093068 -0.7744428 0.4706264 0.30113864 2.0118194 0.12903997 -0.60683686 -0.6203657 -0.8731898 0.26813036 -1.1260198 -0.15358922 -1.1030935 0.34980163 -0.57477015 -0.9108919
2182 -1.1771612 -0.20673364 0.60755944 -0.9166899 0.2830356 -0.31758544 -2.1290133 -0.41514862 -0.5893762 0.6732459 0.46677685 -1.433647 -0.37047875 0.38435012 -0.520487 -0.9809059
1692 0.48805976 -0.32214224 2.266945 0.25568706 0.42886907 -0.3709396 -0.44462717 -0.92712545 -0.16524488 0.25403187 1.5549413 -0.086411886 -0.54678047 -0.6336001 -0.75080216 -1.7921748
1413 -1.56611 -0.5771284 2.1902502 -1.7911496 0.24317685 1.1161193 0.15250002 -1.3273549 0.80242825 0.7292307 -0.38015914 -0.5696711 0.53365797 -0.31071696 -2.230074 -1.4083163
1257 0.42868003 0.25493562 0.8711329 -1.1306127 0.42944887 1.3120277 -1.3567932 -2.5343199 1.7212855 1.7564067 -0.25692403 -0.1411782 -0.88632876 0.9225539 0.1760135 -0.7313409
1416 -0.04739883 0.16817836 0.96127653 -0.6964405 1.0330443 0.6749203 -1.3942273 -0.9215949 -1.0215616 -0.2689059 0.9544591 -1.0123837 0.8483618 -0.53946203 -0.17456135 -0.6781816
1703 -1.0930909 -0.24554709 0.29054588 -0.49386618 0.7073902 1.4611639 0.048814844 -1.1301769 -0.005045224 0.6569052 1.359809 -0.90982 -0.30954722 1.4506258 0.4716993 -0.7922252
436 0.4778146 -1.4755958 1.3957138 -0.03671791 1.1633929 0.0752661 -1.2350699 -0.8982141 -1.1141579 0.15697706 0.2574808 -0.04551712 -0.5345048 0.29081848 0.7087857 -1.2005807
507 -1.4108688 -1.0322778 1.9308013 -2.080969 0.29426438 1.2203485 0.16850492 -1.3251956 1.1680101 0.5651297 -0.05486164 -1.1109108 0.44947913 -0.12710977 -2.0648844 -1.2106091
2155 -0.078151196 -0.40524408 0.522024 0.22573695 1.0559052 0.06039714 -0.6604151 -1.2222247 -0.5503951 -0.8242559 0.1933081 -1.5781307 0.005665653 0.6362065 0.70759803 -0.976211
1628 -1.0498148 0.15756135 0.879954 0.23010327 0.90137196 -0.66347635 -2.1450317 -0.88081235 -0.1048444 0.6523317 0.91217935 -0.9268569 0.21501268 0.84006995 -0.20047188 -0.98244315
1103 -0.07045576 1.0136982 0.7821173 -1.0577531 0.8386952 -0.8827354 0.66541207 -0.18761566 -0.81263775 0.017338097 0.14331158 -1.7990704 0.0074101994 1.2684157 -1.263455 -0.5278007
310 -0.83337396 -1.5092652 0.80528873 -1.4333194 -0.24369158 0.43273228 0.44142482 -1.5283452 0.3158647 2.0569994 0.19778812 0.44888937 -0.1289047 0.20372674 -1.0671213 -1.9651387
429 0.42257023 -0.09034565 0.8788907 0.40208066 -0.14930798 0.29582623 0.38666716 -2.2625997 0.26430184 0.50514096 1.3606036 -1.5116144 -0.5534202 0.106537506 -0.55872995 -1.0005189
2394 0.1381468 -0.19112673 1.7105187 -0.26544896 0.7831713 1.0238386 -0.34712029 -0.19828004 -1.2619187 1.865236 -0.602189 -1.4495414 -0.51344675 -0.0043006944 0.756903 -1.124237
1765 1.1454726 0.2886726 0.3693533 -1.0526534 1.0822955 -1.0664415 0.65994424 -0.10452768 -0.59042495 0.47389302 -0.093355976 -1.8525851 0.3605986 0.7252396 -1.0094814 -0.9431059
2671 0.8486958 -0.0032652412 0.890303 -1.3060465 0.82681113 1.3767483 -1.3587607 -2.5809247 1.4061702 2.0353587 -0.49612644 -0.2314974 -1.496907 0.7804235 0.073054686 -0.35658816
661 0.4575646 -1.0147604 0.80311275 0.4976022 0.452485 1.0744025 -0.7411423 0.32227552 -0.85559094 0.11797045 -0.94559616 -0.30320895 0.7023737 1.5237621 -0.27146363 -1.3093867
1624 -0.59901106 -0.29468575 0.21150596 -0.0015100971 -0.40726382 0.29217064 -1.0553299 -1.0786287 -0.10407318 -0.40750238 -0.23118068 -0.30118233 -0.979192 1.5368241 -1.2277286 -1.0760167
973 0.44677854 -0.01278626 0.62061626 0.99589795 0.64934766 0.30959672 -0.31856325 -0.47013274 -1.6524525 -0.010685845 -0.6022632 -0.42563385 -0.106777385 0.5814895 -0.44639364 -1.2767564
2248 0.29187682 0.748301 0.22127678 -1.6096004 0.17027283 1.1363064 -1.7126954 -2.334127 1.5680923 2.0728533 -0.094950624 -0.17248787 -0.33755338 1.1187788 -0.024982626 -0.916516
1725 1.835441 0.30082467 0.1478721 -0.77665406 0.7985024 -1.0118047 -0.5449656 -0.047546383 -0.35632694 0.33927715 0.014134369 -0.5544984 0.23864771 0.908163 -1.3975955 -0.7501564
2001 0.12154159 0.17170642 1.6687763 0.6469732 -0.083329335 0.38441688 0.8039058 -1.3528913 -0.08477156 0.25312173 1.3284839 -0.20094196 -0.061688904 0.22834551 -0.63584954 -1.445864
1309 0.49132282 -0.24696052 0.8654241 -1.0080612 0.20829004 0.12664196 -1.0536475 0.26298922 -1.8483354 0.52761585 0.23304272 -0.60159606 -0.54986227 0.9679367 0.33864728 -0.79959816
1973 -0.31383485 -0.0050253635 1.4444798 -0.5816634 0.5502132 0.55896884 -0.78790146 -0.3170675 -1.0756123 -0.13024636 -1.5731149 -1.348229 -0.023660645 0.50167626 0.6485259 -1.1115935
687 1.2467316 0.54490364 0.30266586 -1.3264662 0.6046423 -0.19570726 0.04033942 -0.019583188 -0.73967326 0.8544569 -0.6723759 -0.5649071 0.4120822 -0.11654064 -1.5811902 -0.77281195
1894 0.4892733 -1.540812 0.15186214 -1.1549805 0.54614115 0.44576815 0.7425072 -0.9805452 -0.27285632 -0.2958526 0.10984401 -1.4197897 0.07935752 -0.019813195 -0.2613733 -1.1219212
525 -0.99173504 0.01623004 1.354434 -0.38970625 0.5208599 -0.5000665 -2.1747375 -0.2643965 -0.8092738 0.76176614 0.9207495 -0.82838404 0.12640506 0.42526713 -0.2367351 -1.4162006
1950 -0.72879714 -1.8096949 0.8225473 -1.7738692 -0.28565505 0.7195099 0.61112744 -1.4548452 0.15558818 1.6289765 0.077407815 0.15067115 -0.3298378 0.3429285 -1.2398773 -1.7079147
1229 0.5374984 0.3020657 1.2113214 -1.6579894 0.5270928 -1.9799088 -0.39108554 -0.3367008 -0.76709247 -0.048067093 -0.11385552 -0.34332705 -1.0323956 1.1208355 -1.3850079 -1.2585367
1742 0.9259657 -0.37458867 0.5942509 -1.1625217 0.39243644 -1.5698391 0.04969873 -0.5214404 -0.74765867 1.4129595 -0.13825403 -0.6193952 0.5714162 1.1535847 -1.1933254 -0.47300485
2367 -1.0043191 0.48632923 -1.2639254 -0.30612105 2.6286113 1.140526 -0.53725386 -0.28998545 0.066036135 0.2522539 -0.23497762 -1.24613 0.53492 1.1896272 -1.4851143 -2.682348
1505 0.09190245 0.8817682 0.71274114 0.47007436 -0.09958488 -0.55556065 -0.39300185 -0.74740934 0.0076747555 -0.68642974 -0.12827578 -0.40208122 -1.018882 0.89966464 -1.2629797 -1.4468335
1740 1.2437698 0.6388159 0.6354714 -0.7822265 0.28846133 -1.0913486 -0.66645116 -0.008933157 -0.25667518 0.43955466 -0.1077292 -0.61896646 -0.6178515 0.89612156 -2.098904 -0.8665034
1927 0.53413606 0.038783945 0.5373707 -1.0142103 1.3142031 0.87216747 -0.6638076 -1.3881029 -0.9354988 0.24438512 0.9187118 -1.6198775 0.34996173 -0.38283527 0.50522214 -0.40472916
577 1.4496131 0.5436459 0.12966153 -0.4424413 1.4447309 -0.31389812 0.2138054 -3.0318818 0.39723077 0.35741532 0.80960673 1.2368697 0.029511109 0.115409724 -0.95423824 -2.4064815
1015 -0.61716294 0.015370343 1.0000924 0.42327982 -0.55515504 0.33805642 -0.6144494 -2.2077284 -0.11147457 -0.48471588 0.46841928 -1.2419361 -0.6686876 1.2442867 -0.23424678 -0.94332427
1966 -0.6872566 0.28874007 0.60430485 -0.7002487 0.5776855 1.4070928 -0.14472488 -1.3469698 0.8244488 0.6010715 1.143087 -1.3201846 -0.38776684 1.3587922 1.1769137 -1.2737533
350 0.03837365 -0.017382745 -0.21319556 0.5138336 0.17308354 0.366576 -0.8954719 -1.1964848 -0.50884986 0.45853943 -0.46550795 0.055686228 -0.89737725 1.2286733 -2.1200664 -0.9335045
1119 0.95883894 0.7271109 -0.5239596 -0.6321932 1.9854876 1.0631355 0.22392085 -2.6251101 0.73535293 0.9854196 1.3038014 0.3311859 -0.55608827 0.43161243 -1.2066603 -1.0550935
239 -0.47761688 0.11663319 -0.46219367 -0.51207626 0.55760145 -0.56311905 -1.8008745 -1.4985096 -1.1841724 0.43669158 0.404753 -0.39061135 -0.18714641 0.5467499 -0.8924196 -0.680401
2130 1.1255918 -0.3047743 -0.19147636 -0.6639839 0.21786213 1.0461913 -0.694068 -2.09027 0.9958676 0.80953324 1.1706599 -0.63885033 -0.4946612 0.3631663 -0.46348968 -0.588702
154 -0.12257424 -0.23222975 0.8358235 -0.971437 1.3032067 -0.89933234 0.34067693 0.8211933 -0.60987324 0.09327973 -0.20708787 -1.0994883 0.28858653 1.2071068 -1.494708 -1.0223792
2450 0.147765 0.8140659 0.24170764 -0.29242963 0.5672578 -0.0720181 -0.71953946 -0.073965915 -1.5267375 0.7843312 -0.74161524 -1.2003542 0.9727464 1.7984616 -1.0456493 -0.22907741
2464 -0.39717767 -0.31474963 0.7689661 -2.502405 2.0428364 2.4776366 -0.66746193 -1.7305295 0.5909646 -0.73222506 0.2355662 0.26705554 -0.31709206 2.7119267 -0.46109673 -0.33658707
1655 0.6264053 -1.3580431 -0.04379586 -0.54605323 0.69750196 0.2516989 -0.6563643 -0.66511184 -0.582441 -0.15683165 0.37921804 -1.3139235 0.40949988 -0.18766157 0.23246096 -1.596689
2025 0.39844853 -0.41954604 0.6867212 0.70618236 1.0380977 -0.013798121 -0.31953707 -1.2410609 -1.8168845 -0.2579917 0.23180063 -0.58415455 0.75838345 -0.26893395 -0.89925456 -1.1804744
565 1.2971274 0.565406 1.1074266 -1.5709891 0.8667612 -0.97924066 0.1786707 -0.38965383 -0.7227119 1.1379247 -1.6509666 -0.24872404 -0.06628736 0.69126856 -1.6557896 -0.5733816
1776 0.19824408 -0.03426597 -0.58139485 -0.81617767 0.20460278 -0.064382516 -0.31678814 -1.0908741 -1.3339102 -0.13948902 -1.1788948 -0.52546436 -0.008130521 1.4789141 -1.6081734 -0.9669094
279 -0.7608777 -0.7830876 0.75543576 -1.7899019 1.4204489 0.48596323 -0.23572636 -0.8335709 -1.3140923 -0.39183852 -1.0346973 -0.41680047 -0.002241094 -0.1256888 0.34404328 -1.282212
734 -0.96792305 0.5387149 1.13904 -0.4418115 0.7142823 -0.85135186 -1.5698382 -0.30263254 0.008652843 1.1142398 0.43100327 -1.3268138 0.80171514 -0.16241002 -0.0931998 -2.2727854
519 0.17575942 -0.053567488 0.021019671 -0.36116126 -0.059258424 0.74983174 0.005074263 -0.8578068 -0.99484456 -0.32727143 -0.24029325 0.45994356 -0.54680127 0.406918 -1.0785598 -1.5661662
55 0.41737196 0.1705899 0.27225357 0.35227233 1.0628916 0.7354987 -1.697862 -1.1414692 -1.3139181 1.0183407 0.6324773 -0.53614265 0.3218941 0.66080695 0.46399865 -0.38579425
73 1.1046724 0.8890151 0.38140616 -1.6500965 1.2576979 -0.28546816 -0.12465438 -0.57501656 -0.84523225 -0.10155521 -0.15103665 -0.9263524 -0.100331634 0.31092155 -1.8432356 -0.10468353
487 0.4108479 -1.0518829 0.7186184 0.30381435 0.15700266 -0.16736025 -0.43826193 -1.2983487 -0.87001234 -0.37378302 -0.3634264 0.07144555 -0.8434807 1.3346798 -1.515413 -0.5041579
454 0.042833332 -0.0011797495 0.4149552 1.3097099 1.2716753 0.55005145 -1.4576011 -0.4275807 -0.91414696 0.78004235 -0.7485891 -0.05055788 -0.4713279 0.06360792 -0.8971823 -1.4044085
748 0.43244538 0.34147057 0.75334007 -0.82132137 1.0228466 -0.5554663 -0.07387265 0.36413696 -0.80906945 -0.37090078 -0.45030066 -1.8379492 -0.15485296 1.0988698 -0.5509897 -0.6490171
645 0.96408874 0.6795051 0.8026002 -0.63247997 2.465807 0.047450036 -0.25663728 0.4374883 -0.5501376 0.030044844 -0.53478926 -0.043594714 -0.16892177 0.3008244 -0.44511303 -0.5425608
657 0.33730802 0.46899137 1.1309941 -1.8042784 0.54362535 -1.6584508 -0.7452037 0.2895082 -0.847183 0.7105798 -0.77128524 -0.3833657 -1.1573752 0.79333186 -1.6821992 -1.4814343
505 0.2995662 -0.8940795 -0.24673535 -0.40329266 0.38618016 1.2050508 -0.90862465 0.24267747 -0.42538744 0.5275021 -0.019014265 -0.44531518 -0.46983257 0.8842271 -2.1724312 -0.44444245
441 0.047832634 0.45958894 0.8721101 1.5549567 1.5954686 0.5939297 -0.9273396 0.45261756 -1.1621149 -0.05201709 -0.15784968 -0.09203659 -0.036015455 1.6525309 -1.110788 -1.4699066
94 -0.31878287 0.39715493 0.26600477 -0.5433762 -0.037164386 0.41700017 -0.37138548 -1.5434265 0.12532033 -0.1145987 0.76623166 -1.3537369 -0.899308 0.8819703 1.2601923 -2.0197506
364 -0.23143691 0.075395174 0.9760673 -0.7778737 1.612241 -1.1169865 0.5582106 0.43784428 -0.53150964 0.64599705 0.44789526 -1.1328335 0.30921707 0.95363903 -1.9980265 -0.6934052
2451 0.6073907 0.43981636 0.8757257 -0.49864757 0.24763319 -0.8262384 -0.70290905 0.05875139 0.2353214 0.44678864 0.083257645 -1.1258508 -0.61741024 1.1925887 -2.820837 -0.51367486
756 0.5533247 -1.0479275 2.5937202 0.24500391 0.8279255 -0.43957633 -1.0593947 -0.9115166 -0.6176335 0.005253529 1.1546265 -0.17613402 -0.5670685 -0.2996704 -0.30336663 -1.5936676
1050 -0.36326233 0.7794842 0.556773 -0.94931173 0.23391616 1.097736 -0.32220164 -1.5476748 1.9393375 1.9525285 -0.23449327 -1.6696471 0.053558294 2.4877012 0.8867314 -1.4808785
2359 1.1999385 0.82466936 0.37741417 -1.5104079 0.9777793 -0.1945159 -0.03600627 -0.56677514 -0.5334728 0.76948565 -0.35846198 -0.89549446 0.17681171 -0.87668544 -1.7945608 -0.79775006
2083 0.2541139 -0.21187331 0.32393405 -0.7981885 0.5180338 0.34400865 -0.48376477 0.6073543 -0.43113497 0.64858514 -0.24776964 -1.3420773 -0.042192224 1.2079779 -2.3732364 -0.022128284
218 0.57225835 -0.43786716 -0.17442253 -0.47175932 -0.045563053 -0.23563819 0.3863748 -0.50008917 -0.34740898 1.0459623 1.8234485 0.0711629 -0.53458107 1.5057731 -0.50456464 -1.4806985
236 0.6878438 -0.20972872 -0.28476617 -0.024455525 -0.04117675 -0.08918623 -0.5108649 -0.66934496 -1.0457848 -0.066699944 -1.0108786 -0.49499068 -0.8127602 1.1428367 -1.45007 -1.6202265
1317 0.55796194 0.66230655 0.7634063 -1.103459 1.1195787 -0.9395267 0.94795245 0.5810896 -0.27309796 0.5836222 -0.15690629 -1.5515614 0.57608503 0.91955316 -1.0945978 -1.5006915
2238 -1.2430818 0.6587955 0.78543806 -0.4897988 0.4686319 1.239417 0.3624633 -1.4614122 0.23377715 0.018871633 1.3665882 -0.25832108 -0.12759691 1.9065663 -0.041519325 -0.85921794
1154 0.45053303 -0.3152629 0.8540068 -2.1295154 0.07217189 -0.92680246 -0.13753106 0.25927776 -0.604186 1.0297121 -0.09006949 -1.0474279 0.1566288 1.4610693 -1.4131553 -0.42738402
180 1.159127 -0.1750442 -0.42517897 -0.76411283 -0.24157041 0.62579536 0.66746545 -1.8611591 -0.503749 1.2082739 1.3465402 -0.5671123 -0.078164615 0.9813383 -0.9078863 -1.0725417
1171 0.62528825 0.319862 -0.47566965 -1.2129173 1.1793149 0.050194107 -0.1871553 -0.51371914 -0.86840826 0.9152815 -0.15779892 -0.009526937 0.35371193 -0.8030284 -0.74140114 -1.1543015
2160 1.7946209 -0.34694225 1.871412 1.0515807 1.3943858 -0.2993962 0.26584446 -2.2225215 0.97835904 3.461053 -1.0779364 -1.0243981 0.61791414 2.2010248 -0.04824661 -1.0755451
1952 0.88070375 -0.55618554 0.7636093 -0.14705022 0.17406268 1.7499526 -0.5148015 -2.521713 -0.25814393 0.96679264 0.34075537 -1.1712519 0.9672392 -0.29954767 -0.8358807 -0.42583537
2080 0.7488372 -0.766307 0.58232677 0.13191132 0.16387172 0.16154316 -0.8258395 -1.1052288 -0.691454 0.28164652 -0.49873778 0.7076944 -1.3283179 1.5169697 -1.5371875 -0.5450081
316 1.0588168 0.36911455 0.06933233 -0.9049056 -0.5731537 1.1031832 0.4621525 -0.9370753 -0.4106964 0.40795562 0.39121893 -0.72431666 0.7143878 -0.23063898 -0.88221735 -1.9905837
2122 -0.6508299 -0.18749245 1.4535893 0.7036208 -0.033447977 0.47239178 0.52154505 -1.2445894 0.34800383 0.2787777 1.5989941 -0.4967926 -0.029730825 1.0358238 -1.4871081 -1.0602298
1367 0.27787894 -0.6361345 0.259422 0.41017666 -0.3225573 0.19701655 -0.6259286 -1.2120332 -0.028474081 0.18824714 -0.8693307 0.07702952 -1.2542164 1.7141285 -0.9358708 -1.1546197
1869 -0.33442605 -0.34142208 -0.08572865 0.11827532 0.10681743 1.3100893 0.52122706 -0.8079353 -1.1219901 1.4023672 -0.31752977 0.04841425 0.34601623 0.6723223 0.21373028 -1.8163118
1702 -1.1133856 0.009090928 0.43791977 -0.44871116 0.8852679 1.2986941 0.47174206 -1.2354255 0.4401702 0.5028176 1.277346 -0.75774884 -0.07141043 1.8375689 0.7078602 -1.1302537
59 1.2639073 -0.25728673 0.13559869 -1.163443 0.21490736 -1.5957958 -0.017500028 -0.42310145 -0.11431504 0.66885394 -0.23574705 -0.8401768 0.10834446 1.0520486 -1.2064428 -1.1883428
65 -0.49362507 0.20497656 -0.17371976 -0.004680088 0.75823563 -0.3949915 -1.9341415 -1.8768122 -1.239869 0.64372903 0.69202256 -0.681287 0.2918706 0.59218186 -0.14064658 -0.88182634
1682 -0.31831658 -0.034633424 0.31467703 0.29478255 0.041750055 1.0223954 -1.1948113 -1.0832772 -0.57165927 1.1326298 0.9343088 -1.1799234 -1.8984439 -0.23812254 -1.0831674 -1.5741512
1602 -0.5666708 0.08061552 1.1944894 -0.535648 0.43268293 0.18594024 -1.8778769 -0.53747636 -0.42975843 0.27972063 1.0014552 -1.5354395 0.66919297 -0.53303474 -0.47170752 -1.4661183
1912 0.7076392 0.389307 0.8914676 -0.38361695 -0.44226697 0.50348216 -0.49475524 -0.119574785 -1.4944099 1.0517552 0.5413873 -0.7217329 -1.6453131 1.0776036 0.29218566 -1.0399257
1902 1.4929891 0.80037665 0.8761667 -0.42073244 2.1615126 0.35303423 -0.45324767 -0.053540304 0.6463189 -0.48204967 -1.1056579 0.49139836 -0.8986438 1.0697701 -1.1081316 -1.3814161
89 -1.2060021 -0.35722643 1.416042 -1.3883654 1.0642589 2.0373905 -0.28060904 -1.3477924 0.1240961 -0.45217985 0.5165573 -0.28690886 0.3711539 3.1641176 -0.49673212 -0.2306773
1583 -0.08213949 0.27431634 0.55615807 0.41043767 1.0792652 -0.03858289 0.17613353 -0.8466529 -2.087236 -0.2974171 -0.12863305 -0.432798 0.40805832 0.22471993 -0.29825035 -1.6890475
456 -0.36433628 0.29536214 1.2310936 0.028986856 0.5033833 -0.5050392 -2.0156918 -0.4892933 0.13816154 -0.14706904 1.2879847 -0.52742344 -0.10595028 0.10414724 -0.6757576 -1.9280349
1842 0.1776971 -1.7495027 0.10940256 -0.30955777 1.3404998 0.12884817 -0.8565008 -0.44280994 -1.0206938 0.12058224 0.167786 -0.90150774 -0.39776805 0.20942968 0.44167748 -2.0340204
2199 -0.037168052 -0.025338527 1.2562444 -0.21833245 0.5706272 -0.91650957 -1.4157832 -0.48902062 0.25109887 -0.5540256 1.092325 -1.0568008 0.066470765 -0.2764601 -0.9321631 -1.8726617
1351 0.32712555 -0.12112225 0.37882182 -0.08111472 1.6854738 0.3070642 -1.4282693 -0.41746616 -0.26052648 0.25795743 -0.33976558 -2.0273113 -1.0184097 -0.22512382 0.5716748 -1.7427047
2383 -1.3708775 -0.9821656 1.0303688 0.97520787 0.48232442 -0.58461106 -0.92657113 -1.1013619 0.2646898 0.40201387 1.021763 -0.4856501 -0.15898226 1.9796283 -0.8579481 -1.2553543
210 0.2768412 0.06605944 -0.33717015 0.26187655 1.2246379 1.5407218 -0.6978961 -1.1873357 -0.76255125 1.0093652 0.7925591 -1.0981356 0.22458713 0.55969185 0.7424346 -0.94887716
833 1.4326768 0.104114026 0.64349115 -1.9236585 -0.42409757 1.1925759 0.09770103 -1.7587708 -0.021405118 -0.81764424 1.3573166 -1.2021505 0.11702349 1.3374516 -1.9004494 -0.60066074
374 1.7966667 0.33175626 2.9443216 -0.14048724 3.1626666 0.96721387 0.45930198 -2.6857007 0.9389292 0.9718346 0.6844283 0.08402091 1.2884059 1.2612897 -0.47769377 0.03289073
1889 0.71325177 0.055711564 0.14143889 -0.13235265 -0.048963275 1.0424669 -0.5291253 -1.7943985 0.9854531 0.22907794 1.5837936 -1.1171427 -0.09211416 0.18954025 -0.52723503 -1.1001822
702 0.36041987 0.6891961 1.4663591 -0.021455158 0.6695374 0.73852915 -0.8659837 -0.21474706 -0.7786588 -0.7433883 -0.8381033 -2.0537846 -0.07475375 1.302912 0.8878145 -1.4385276
231 0.7300797 0.2601465 0.15683414 -0.01282725 0.35522595 1.6681011 0.47089854 -0.42840704 -0.71053034 -0.5964559 -0.27910885 -0.31165755 -0.44379464 0.11667951 -0.4775112 -1.9043455
736 -0.96721876 0.8704384 1.2204349 -0.39521602 0.44432384 -0.9547234 -1.5206498 -0.34440985 -0.092773244 1.017502 0.37576658 -1.4701778 0.66835296 0.053211324 -0.1224104 -2.3998272
735 0.011519728 0.2610932 1.9255139 0.42484894 1.6463877 1.2793665 -2.2368867 0.6276975 -0.37210405 0.36107635 -0.94094676 0.63795185 1.1790564 1.7298585 -0.7647879 -2.062872
48 0.7881179 0.07242394 1.2521973 0.061420497 -0.79155326 1.448265 0.23528272 -2.3153758 -0.039917894 0.8626939 0.32985175 -0.6080035 0.64594793 0.28660998 -0.6116639 -0.7203049
1743 0.15023664 0.53541607 0.06395752 -0.25063556 0.67395455 0.07913587 -0.3467488 -0.043513913 -1.1857113 0.49958697 -0.6998039 -1.2617295 0.8539487 1.910127 -1.3881731 -0.2398532
2335 -1.0695187 0.7077582 1.9880298 0.5809795 -0.038884994 0.60629845 0.15132248 -1.6193981 -0.36674577 0.14445218 0.8229809 -0.5014468 -0.04319649 0.81382465 0.13869672 -0.8017133
1954 1.1379808 -0.7056014 0.9856973 0.11869454 1.8417906 0.60483223 -1.0033565 0.718573 -0.07595342 0.772955 -0.82787544 0.3053071 1.3070642 0.17959751 -0.823404 -1.8261607
33 -0.121793225 -0.75995266 1.2555586 0.5305493 -0.40319434 -0.098429635 0.055434287 -1.4974858 0.27091768 0.46117958 1.9027631 -0.60587364 -0.32168818 2.0208702 -0.8141316 -1.0948489
2146 1.8462713 0.35420445 2.993086 -0.3202559 3.066639 1.0646058 0.29458758 -2.6152394 0.9375809 1.0994356 0.6591457 0.07656164 1.1281031 1.1959091 -0.23798521 -0.0352034
1616 -0.49302036 -0.7961633 0.5536095 0.5148367 1.3805692 0.19062948 -1.1342984 -1.1820718 -0.8405269 0.5619357 -1.6222942 -1.6496463 -0.68879634 0.37448683 -0.4732195 -0.5038789
1464 -0.1902953 0.3299158 -0.15653284 -0.4653902 0.92114115 0.4411751 -1.5548872 -0.42000768 -0.7088593 0.72300076 -1.4912173 -1.756913 -0.16241762 0.41680127 0.37717953 -1.8140074
1158 -0.44595253 -0.49354902 0.20522174 0.99411136 -0.10072915 -0.6138134 -0.95490867 -0.68557096 -0.1961655 0.99450815 -0.033392873 -0.57983357 -0.7811836 1.9706463 -1.1006006 -1.3579166
2054 -0.7687613 -0.00062908366 1.2397516 -0.294343 0.5372349 -0.2132385 -2.4307098 -0.6193394 -0.10101951 0.113948725 0.859825 -0.9830049 0.16651525 0.43664795 -0.20246416 -1.2691317
490 0.43974784 -0.7915626 1.0268224 -1.0571347 0.31987098 0.05282768 -1.5598836 -0.1683899 -0.7697249 -0.23681474 -0.8450995 -0.4500266 -0.26163742 0.90629935 0.8401165 -1.0900265
711 -1.1732558 0.0013087299 0.27360782 0.038839117 1.5388942 0.40292385 -1.1880517 -0.17283434 -0.91085196 -0.22040512 -0.9752104 -1.6911631 0.09044029 1.0042278 -0.92110425 -0.4901012
1558 0.19076525 0.02246687 0.45466226 -0.47792768 0.4252148 1.2444715 0.37775353 0.6316643 -0.8660107 0.717079 1.5422703 0.41447762 -0.26884422 0.6190149 -1.6515881 -1.8422707
133 -0.116481796 -0.36200088 0.056994822 -0.030384647 -0.122769125 0.36618525 -0.9634095 -0.8337253 -0.4491048 -0.63987744 -0.50548154 -0.23595059 -0.3008597 0.55791426 -1.9664276 -1.5766183
482 0.68377674 -0.7881746 -0.062426638 -0.32581648 -0.23435128 -0.59090286 0.67265284 -1.517742 -0.45886403 1.3755921 0.9880324 -0.30984935 0.3360714 0.82017815 -0.800315 -1.1618617
74 -0.1821601 0.52681476 0.6686814 -0.10602955 0.89613616 0.07090087 -1.5110661 -1.5327522 -0.39230144 -0.8663605 0.6170857 -1.0323716 0.032397695 -0.14696276 0.10131203 -1.2434434
2291 -0.32957405 0.09281173 0.049167838 -0.81680626 -0.0985319 -0.39851406 -0.3677217 -0.53438574 -0.4904283 1.5867684 1.2210345 -1.5317783 -1.2720501 -0.04929486 -0.80594045 -1.3326011
1681 -0.15154661 -0.34348345 0.39735988 0.07469559 -0.3771725 1.2716118 -1.459573 -1.2795298 -0.5794517 0.5128447 0.5236515 -1.023941 -1.7854785 0.20097221 -1.6153108 -1.3721386
1739 0.38357428 0.72849905 0.6726287 -0.8600557 0.9054487 -0.959698 1.265647 -0.13906541 -0.47970057 0.4257223 -0.10819021 -1.2024443 0.48976886 0.998808 -1.0304422 -1.0195532
2056 -1.4514034 0.15765035 1.1834902 -0.088279404 1.3611006 -0.76053876 -1.7770246 -0.70158434 -0.3717357 1.3141972 0.52441716 -1.1691324 0.90293014 -0.18722892 -0.33203772 -1.8046632
2168 0.59654796 0.43643963 0.2956173 -1.342758 0.7965416 0.4191223 -0.4235648 0.44380856 -0.8013747 0.9960374 -0.53122187 -1.4421573 0.14740929 0.618232 -2.652373 -0.2707372
695 0.18589644 -0.18830201 0.5727751 0.12340018 -0.30727026 1.3149744 -1.1148459 -1.4183041 -1.01689 0.5248891 0.8218136 -1.1382523 -1.8537108 0.096628964 -1.3838577 -1.1793805
868 -0.6760716 -0.70942676 0.52953035 -0.83070797 0.90143925 1.0000175 -1.0798888 -1.423035 -1.3565199 -0.08442307 -1.159579 0.01624046 0.0073898393 0.9891022 1.1370505 -1.8901625
957 0.28254858 -0.27991903 0.7200381 -1.453201 0.3327292 -0.20096923 -0.47419387 0.7079279 -0.4057544 0.73383594 0.020043157 -1.3770704 -0.09092917 1.3966944 -2.206564 -0.13898371
1300 -1.5913554 -0.60145867 1.641023 -2.067614 0.121266134 1.0817873 0.2617159 -1.6056567 0.79020315 0.6719159 -0.2114076 -0.62546253 0.5188025 0.0332186 -2.235931 -1.2028548
2570 1.8070999 0.88691235 0.7352948 -1.7937688 0.64005345 1.5731528 1.9006453 -2.1304986 0.12210953 1.4109441 -2.1228576 -0.30980873 -1.180241 1.5233207 -0.48462388 -1.7835646
1022 1.5768262 -1.0775714 1.8420664 0.5219571 2.543891 0.8516558 -0.8681457 0.61752254 0.9861423 0.11274727 -0.421247 -0.37067434 -0.57674855 1.4817754 -1.0047064 -0.88422006
2117 -0.30956888 -0.9061736 -0.020734398 -0.99355525 0.44315618 0.7114278 1.1270154 -1.1485957 -0.08651039 -0.04474745 -0.12416693 -1.8341266 0.34384376 0.31527758 -0.023410603 -1.6905469
444 -0.036329124 -0.3714403 0.77636456 -2.9158554 2.104782 2.4239347 -0.98583645 -1.5926943 0.35741985 -0.5721584 0.06538741 0.13904114 -0.6442971 2.6227221 -0.7068285 -0.120923825
867 0.2990333 0.2555113 1.3327538 -2.3988822 0.59925777 -1.9059697 -0.7071631 0.018865516 -0.5659096 0.6517863 -0.26144567 0.022313705 -1.3100722 1.126818 -1.6411438 -1.6272807
1903 2.0057015 0.16703774 1.1465744 -0.14401057 1.9518178 0.606933 -0.83943903 -0.38591242 1.0909774 -0.096937194 -1.5338978 0.9748202 -0.94745433 1.2085632 -0.81871086 -2.2052643
472 1.1016847 1.4577129 1.4681672 -0.58437514 2.2566898 0.6247322 -1.4991992 0.53461766 0.66691077 -0.1303031 -1.1498871 0.7598158 0.13135235 1.6253756 -1.2205973 -1.7461516
1955 1.6773671 -1.5345155 1.625773 -0.23145267 1.696333 0.8945373 -1.2055981 0.53161085 0.64580476 0.136539 -1.4154332 -0.2821317 1.0513759 0.76590216 -0.83741176 -1.652197
2147 1.6658113 0.26597095 2.6695585 -0.5910493 2.8865201 0.75668037 0.79328686 -2.6872048 0.6154355 1.026982 0.56482226 0.69576377 1.587896 1.1652447 -0.13876173 -0.49037802
553 -0.049219918 0.48908275 0.66174567 0.25491062 0.90259755 0.3339287 0.7330761 -0.87725025 -2.2250915 0.15598977 0.30232245 0.0031086872 0.39332193 0.3970744 -0.54611456 -1.7443311
281 0.87544435 -0.1061883 0.315423 -1.3856701 0.92998564 -0.12004611 0.63840747 -0.24867637 0.014600223 -0.13363706 1.2001731 0.3155583 0.8891698 0.78888476 -0.015238231 -1.8107487
2309 0.25893232 -0.685132 0.421106 0.32307202 0.80491996 1.9477472 -0.1390912 -1.109759 -0.9624642 1.4740764 0.2652067 -0.7867052 -0.17328298 0.08584051 1.0306352 -1.7778485
1360 1.6632429 0.05389322 1.3210282 -0.23832618 2.555667 0.83234954 -0.8004989 -0.03636516 0.8005868 -0.020628372 -0.6682145 0.782254 -1.3226408 0.9989848 -1.1717619 -1.2667267
1443 -1.2807146 -0.13224581 0.73976266 -0.8367558 0.58839786 2.0179532 -0.23318893 -1.1815573 -0.1577492 -0.37949958 0.56988585 -0.66003716 0.32260904 2.9308064 -0.35017172 -0.8305119
1527 0.4514436 0.3128432 0.5655228 -0.25889736 0.52703714 -0.29423812 -1.2942718 0.0030713894 -1.620533 1.6219164 -0.67587346 -0.89215684 0.7276801 0.9622997 -0.022830673 -0.32409653
1336 0.42178518 -0.49826512 0.22537531 0.30602053 -0.10742396 1.2517853 -0.59192896 -1.6894748 -0.33220953 0.40725917 0.7171513 -1.5013087 -0.8270847 0.43250963 -0.8711068 -0.24036087
2075 1.2837679 -0.6121899 -0.16615042 -0.5174566 0.03636192 0.6591491 0.4964886 -1.4051514 -0.6839224 1.2582428 1.2423309 -0.15337768 -1.107207 1.6002241 -0.74497366 -0.7647131
426 0.14929943 -0.6440036 0.5561672 0.4046294 -0.3380126 0.1382629 -0.48391384 -1.505294 -0.6366945 -0.66323495 -0.37667084 -0.42766675 -0.49841657 1.1407313 -1.4111059 -0.9725784
102 0.45552135 -0.8522181 -0.11670745 -0.19787703 -0.5123977 1.0805132 -0.9937413 -0.5405001 -0.6625965 -0.06307987 -0.48058033 -0.2814533 0.2786876 1.1100038 -1.3670527 -1.1603932
1296 0.46546698 0.6873597 0.70523703 0.37968075 0.49290118 0.23728958 -0.83839494 0.54210794 -0.7599194 0.50680894 -0.001856827 -1.2055973 -1.7703081 2.246747 0.039544538 -1.2173
145 1.9177276 -0.025555955 2.0923457 1.405462 1.421102 0.36889446 -0.54177713 -1.0441679 1.2639412 3.769544 0.5894892 -0.8820798 0.09556611 1.5141227 -0.7476223 -1.3747742
389 0.18921082 0.4647826 0.35066915 0.0010773756 0.77056056 0.34308594 -0.5128697 0.19946812 -1.4123867 0.5650926 -0.8536384 -0.64215976 1.0040636 2.2532365 -1.3819107 -0.34801686
745 0.11403247 0.44459453 0.8514645 0.15284553 0.80516684 0.26354864 0.88323843 -0.9176188 -2.1389008 0.36219284 0.6538264 -0.020414444 0.30511487 0.34050837 -0.58759505 -1.6302338
1370 0.5417648 0.39626208 0.9729608 0.38150725 1.0591748 0.08201774 -0.9098676 -0.7794632 -0.9537394 0.22745839 -1.5232571 -1.2188689 0.22655748 0.19234887 0.5253514 -1.2176776
36 0.08904409 0.64778334 0.56137806 0.35408762 0.46966472 -0.32047915 -0.92751867 -0.6047581 -0.4583218 -0.81336045 0.0935648 0.29813713 -1.173946 1.0335069 -1.6894048 -1.8753505
897 0.39474368 -0.7151204 0.16849157 -0.02574902 1.3270841 0.68275714 -0.6072967 -1.4167037 -1.3194926 0.05277399 1.242701 -1.2147115 0.29839507 0.43999535 0.44747376 -0.7540308
2181 -0.73967665 0.46264407 1.5068575 -0.33455396 0.5173092 -1.0541389 -1.9050012 -0.26185015 -0.19153398 0.752547 0.96248055 -1.443641 0.47487456 0.27984634 -0.17944051 -2.358129
704 0.027351934 0.5332045 0.167553 -0.20949532 0.8007798 0.04763222 -0.63192165 -0.36840892 -1.3093892 0.55149657 -0.99273384 -1.3409904 1.088457 2.0367641 -1.5375661 -0.15104234
1782 0.4858903 -0.84814984 0.6860938 0.48037475 -0.08658738 0.17826232 -0.7132223 -1.2347397 -0.9762402 -0.20961437 -0.42755842 0.12884878 -0.8645111 1.0693009 -1.4767791 -0.99898744
779 0.46874064 0.5815255 0.96592575 0.20488703 1.130327 0.7284414 -0.99878013 -0.70871246 -1.063388 -0.21699274 -1.3290939 -1.4577016 -0.01814361 0.4153089 0.6241998 -1.2580427
2126 1.2425318 0.4414705 -0.49050763 -0.6022685 2.3213723 0.7962169 0.12747148 -2.8111415 0.8248581 0.693887 1.2473152 0.16424754 -0.4109564 0.20310362 -1.2324282 -1.1305428
1135 0.3807588 0.4312873 0.8026056 -1.2947825 0.25310254 1.2916698 -1.5051985 -2.8046546 1.3805931 1.7923174 -0.3222132 -0.010823398 -0.85589844 1.110169 0.23143993 -0.72307605
2269 2.146574 0.70924795 1.0412798 0.39433384 1.2702178 0.07251852 -0.9939437 -0.21967146 0.58044994 0.80804 -1.7732357 0.591844 -0.20385292 0.94585854 -1.0970289 -2.1470964
1282 0.11727631 0.45428482 -0.2868292 -0.8503404 0.46639544 -0.13278925 -0.46704498 -0.667462 -1.1965748 -0.40342215 -1.1588356 -0.8674844 0.62022537 2.068339 -1.8723722 -0.89074045
1772 0.13276565 -0.8443579 0.40999946 0.06497491 -0.21071178 0.2470867 -0.5606122 -1.0750829 -0.8522339 -0.37736514 -0.64479584 -0.1080971 -0.60004485 0.9885839 -1.6480285 -1.0590521
139 -0.12879205 -0.41551936 0.3674346 -0.2978142 -0.45399323 0.38820052 -1.0971489 -0.78161615 -0.99334425 0.20341605 -0.6719164 -0.17939696 -0.953933 0.66650087 -1.738159 -1.0690482
2071 0.37595642 0.6377798 0.8551854 -0.2574291 1.6574777 0.18236628 -0.72016263 -0.07157478 -1.6224729 0.113126904 0.048973467 -1.326251 -0.94394773 0.3071574 -0.052031256 -0.4274506
368 0.25717673 0.66038495 -0.030966468 -0.8907026 0.38024142 1.0610769 -1.2348675 -2.4619887 2.0300364 2.261453 -0.25552386 -0.55105305 -0.6888292 1.0737622 -0.21397252 -1.1855445
1824 1.3381584 1.27319 1.2422769 -0.5277432 2.319617 0.16173364 -0.8731805 0.7227055 0.1777676 0.06069496 -0.712223 0.094477944 -0.4150016 1.2391542 -0.5676743 -1.0848036
1273 1.1570046 -0.019653685 -0.5473624 -0.45124048 1.6605115 1.1039851 0.15143691 -2.3488805 0.42089987 0.8166519 1.0325528 -0.31863424 -0.23981771 -0.10140981 -1.1774826 -0.6403837
1826 1.482222 1.5394018 0.9506773 -0.36634126 2.525268 -0.32714623 -0.8040527 0.33648735 0.29568753 0.16489835 -0.7625065 0.19451019 -0.34743318 1.1448897 -0.6752836 -1.4313712
1735 0.28434816 0.40098357 -0.17338452 -0.6461576 0.4394523 -0.11977332 -0.27842596 -0.5420769 -1.3702329 0.11638246 -1.0989877 -1.1013738 0.6665266 1.931036 -1.5053167 -0.4972251
610 0.7013062 -0.6004982 0.82632303 -0.7850797 0.1482777 0.3396819 -1.4726559 -0.6112697 0.43851283 -1.3713517 -1.4837412 0.43079823 -0.6612476 0.8514912 -0.7742359 -2.3428245
2176 1.1973854 0.077767335 0.6006108 -2.9882731 0.6102369 -0.30932584 0.20506978 -0.15701595 -0.22833009 1.2908573 1.3493665 -0.17256698 0.20174937 1.7406095 0.22416636 -1.5252382
1538 0.32360533 -1.7375053 -0.36830863 -0.30134803 2.086178 -0.26093596 -1.0580474 -0.6461706 -0.4795231 0.087443955 -0.584993 -0.18101707 -0.5050912 0.6529857 0.05931447 -1.313434
442 -0.72955376 -0.2946908 1.4720646 0.6045309 0.02248726 0.12944895 -0.016175367 -1.7881656 0.6157137 0.46175677 2.0364954 -0.7476462 -0.42700368 1.8225061 -1.1978151 -0.9551669
1721 1.2633423 0.41826552 0.42675894 -1.8971364 -0.066975266 -0.16604069 0.35762364 0.20921412 -0.4252598 0.58582324 -0.6514106 -0.8480166 0.55158323 0.8749629 -0.64981127 -1.0053186
1428 -0.7821047 -0.73824537 2.8244982 1.2117652 0.3754179 -0.22581893 0.015398636 -1.8457158 0.14748447 0.1979424 0.29328606 -0.80355024 -0.33652198 2.0308616 0.24132858 -1.4242043
609 0.8345925 -0.5876915 0.2646515 -1.2279627 0.84242654 -1.7325059 -0.10734478 -0.8875389 0.08690576 0.20427962 -0.6002321 -0.77197504 0.4582596 1.3303849 -1.643071 -0.64961904
836 -0.17087126 -0.3967123 -0.6487265 -0.58595425 0.9066052 -0.239699 -0.17765234 -0.6466549 -1.2376999 0.16437076 -0.75670695 -0.05298918 -0.8045908 0.6834277 -0.25975373 -1.3987397
580 0.8258854 -0.14561142 0.3585061 -1.1812735 0.5277496 -1.5473245 0.14675969 -0.25879687 -0.7710934 1.2318105 -0.20146821 -1.1583077 0.5189879 0.9559401 -1.0712157 -0.82885206
1475 0.09260449 1.8894961 2.6979585 0.053648468 1.0349252 0.6529317 -1.805196 0.20505436 1.0426918 0.666543 2.5563009 -0.26601788 0.5189575 1.5449132 -1.2321645 -2.8770628
1998 0.23648602 -0.2138215 0.511896 -0.09340363 -0.16423197 0.8232888 -0.53472173 -0.9941479 -1.4952989 -0.2943178 0.5640625 0.23044747 -1.1458936 0.5268664 -0.9162167 -1.4098219
567 1.7590694 -0.87320983 1.4167062 -0.880386 0.47678012 -0.4312837 0.7414458 -0.5972904 -0.535462 0.08319227 -0.62970406 -1.3988985 -0.22551104 -0.6982242 -1.347835 -1.0302875
638 -1.035694 -1.2839384 0.87466335 0.87994814 0.31111988 0.16708636 -0.33782378 -1.1627653 0.2760936 -0.37845743 0.3180678 -0.61845595 -0.25340438 1.9470546 -0.84322786 -1.3912886
817 0.17256947 -0.37157017 0.5903138 -1.7813613 1.7447288 -0.6353428 0.06474466 -0.13423523 -1.8351235 -0.57899463 0.3390496 -0.675657 1.2962959 0.9546023 -1.858233 -1.3139966
2247 0.39215466 -0.27717337 0.5263799 -1.192028 1.0237498 0.64493334 1.3388568 -0.79912084 0.4895038 0.3649674 1.1364859 0.27528182 1.3930613 1.1045916 0.11803919 -1.911045
492 0.31537402 -0.01232629 1.4428018 -1.1987871 0.3385449 1.5113422 -1.4166409 -2.5557654 1.6225623 1.6390401 -0.5372103 -0.07900071 -1.2767619 1.3853397 0.6720718 -0.8776639
39 -0.47722912 1.1799358 -0.8331373 -0.7397979 0.6255002 0.94605553 0.19644251 -1.3647714 0.73213995 0.9318684 0.67431456 -0.48709214 -0.6019913 1.7247077 0.47551543 -1.4898465
1529 -1.3578062 -0.5759376 1.0483178 -0.012484102 1.1515213 1.8995062 -0.6161069 -1.1047437 -1.3949913 0.8541617 0.26378214 -0.001477027 -0.8020788 1.1128374 0.1496328 -0.51967657
121 -0.39207906 -0.42897528 0.5239199 0.6595962 -0.14149849 -0.3963129 -1.0875741 -0.07738432 -0.3554104 0.8788834 -0.38344553 -0.7276649 -1.226123 2.683047 -0.9662902 -1.3342032
1090 -0.8959055 0.12018096 -1.2779161 -0.33581537 2.9184692 1.2830704 -0.3041671 -0.65082675 0.15181904 0.025308367 -0.0971231 -0.983544 0.948998 1.3904861 -1.6617067 -2.9227853
544 -0.07920687 0.23453376 0.73423016 0.15915959 0.30338496 -0.20345066 -1.7493577 -1.0982982 0.017341679 -0.8662433 0.6680618 -0.48110875 -0.010440817 -0.18695942 -0.84230685 -1.7686337
160 0.17386724 0.25833797 0.7251507 0.2661034 0.6478845 0.47610682 0.7235431 -1.0891833 -2.1534808 0.38300455 0.48605683 0.35856107 0.2041707 0.54274166 -0.59335405 -1.3888543
2376 -0.27390313 -1.0271212 1.7235723 1.1236385 0.13975658 -0.18170276 -0.081951015 -1.8896406 0.34863192 -0.17151693 0.27878752 -1.4700743 -0.4447207 2.0837634 -0.10306543 -1.135158
1065 -0.30857554 0.5970849 0.3725589 -0.8392592 -0.1387102 0.072911516 0.33827814 -1.0228298 0.9636427 -0.03222246 0.4095267 -0.787451 -2.4810116 0.92375016 -1.2225772 -2.4067862
1798 0.9828955 -0.4591405 0.64159656 0.7307675 -0.086454794 -0.053904593 -0.32719997 -1.0642942 -0.7359741 -0.027233193 -0.6650032 -0.31737298 -0.90977776 1.3104931 -1.4956 -0.7685257
1519 -1.5801446 0.0023333838 2.1283698 0.35316327 -0.34682882 -0.049041137 -0.16131826 -1.6915972 -0.5543886 0.029837912 0.002515689 -1.1114324 -0.29801434 0.8905485 0.30627897 -1.3558791
1269 0.41128355 -1.8146814 1.6042398 -0.24534962 0.8045904 1.4665695 -0.93445826 0.955863 -0.7482701 1.4358964 -0.08809684 -1.0866795 -0.07452659 1.2026874 0.2967447 -1.2669381
603 0.38442835 -0.69841856 0.0208418 0.3489718 0.105382346 0.22962125 0.43961135 -0.8559736 -0.54413694 0.7417364 -0.70463645 0.09028401 0.05852621 -0.0828485 -1.4850241 -2.1019106
371 1.5643654 1.0610157 1.2906556 0.37911794 1.385807 -0.29673937 -1.3519739 0.07955836 0.3215691 1.2001163 -1.6240953 0.41073263 0.41157395 0.75907207 -0.81250346 -2.101618
2518 0.19792509 0.41728365 1.0802125 -0.51469916 0.030342808 1.4678762 -1.1498287 -2.974324 1.5937363 1.807775 -0.08793375 -0.14361902 -0.5522583 1.0775006 0.1612035 -0.68823916
201 -0.17331687 0.47976226 0.7624295 -0.9423725 -0.1652862 1.1563985 1.0359215 -1.3589085 -0.7530236 0.24018496 -0.108279325 0.0037288743 0.25167096 -0.20905282 -1.2544004 -1.438562
1256 1.2954172 0.5711235 0.974781 -3.209967 0.6792976 -0.27232197 0.48835963 0.041749954 -0.1520258 1.3766621 1.0082127 -0.5223065 0.36550915 1.912689 -0.09281425 -1.171926
1848 0.106801026 0.70377517 -0.01968016 -0.3181447 1.1179343 -0.16385123 -1.5080609 -1.3103057 -1.3563224 0.32900652 -0.17050602 -0.44916147 -0.52136743 -0.072260015 0.39086217 -1.3247774
1907 0.27139804 0.3027548 0.05384228 -0.051287603 1.2874181 1.56539 0.005252752 -1.2587743 -1.1152694 0.037511013 1.6053793 -0.64777344 0.4892064 0.5646112 0.29698798 -1.1460341
69 -0.17285502 0.32068005 0.43847013 0.26735243 1.2194085 0.9034068 -1.4173741 -0.6013601 -0.51328725 0.33382824 -0.2560747 -1.4927951 -0.7184971 -0.7361791 -0.0044322945 -1.7447228
1115 -1.2939813 -0.39723498 1.0093844 -0.0844155 0.6777945 2.0178905 -0.4868496 -0.57331747 -1.2444736 0.9596638 -0.32902786 0.31569478 0.24042416 0.99203575 0.1865402 -1.1920836
2472 -0.17841989 0.76849306 1.8710746 0.21327962 0.89191145 0.39839303 -2.3744023 -0.35916993 0.4479277 0.26072222 1.9613935 -0.079511784 -0.2617937 0.1896359 -0.897365 -2.5245206
2446 1.0189233 -0.5418019 0.4315792 -1.3226783 0.88737833 -1.7609257 -0.3231913 -1.0117824 -0.68225884 0.5494221 -0.29585403 -0.5188235 0.41369447 1.0858777 -1.4371266 -0.34382522
1526 0.39089972 -0.95654297 1.0373635 -0.30816063 0.63552856 0.66332847 -1.3134729 -1.169338 -1.1439186 -0.2755062 -1.0221342 -0.05534366 -0.033349503 1.0408173 1.0529822 -1.5280085
1421 0.38855946 0.021496145 2.0976512 0.18221508 1.1815763 1.0467488 -0.34385133 -0.5667491 -0.854517 1.5830863 -1.2227558 -1.4575703 -0.70091194 -0.04306898 1.1381445 -1.6360003
1501 -0.25325125 -0.505167 0.87109274 0.09680892 1.4137666 1.6384983 -0.21502373 -0.15308748 -0.9377761 1.9589595 -0.9727549 -2.0313408 -0.23134083 0.23617376 0.56277 -1.2699599
1147 -0.95686585 0.2886199 -1.1829754 -0.41418263 2.0241034 1.7290426 0.10189195 -0.5269888 0.25954652 0.070147544 -0.3027581 -1.173202 0.7987057 0.74735385 -1.8190092 -2.5151825
962 0.45047957 -0.7678874 -0.36080283 -0.12224582 -0.13008174 0.1916717 0.35705528 -2.1722603 -0.14513783 1.2841693 0.60448676 -0.5491867 -0.5335171 -0.018294323 -0.6593042 -1.9467766
1203 0.19632944 -1.5408955 0.30551124 -0.29591608 0.79228175 0.6608535 -0.44541824 -1.4071143 -0.9114249 -0.101935804 0.27596852 -1.0337248 -0.35792682 0.20234159 0.6962897 -1.2823344
1284 -0.030981291 1.2673202 0.64009887 -1.1060218 0.5971192 -0.65771335 0.238283 -0.12482792 -1.2777579 0.32233438 -0.13440499 -1.2110462 0.65282744 1.5923315 -1.1912956 -0.4554434
175 0.37089145 0.22562923 -0.043074306 -0.21544006 1.2971491 1.692316 -0.8770753 -0.0040529054 -0.5606046 -0.5738416 -0.7444147 -1.8413192 -0.76864254 0.5028268 -0.054255337 -1.6066623
1185 1.1971707 -0.6770374 2.492871 -0.32573867 1.368603 -0.046763908 0.7236939 -1.1695384 -1.121223 -0.3944273 1.084743 0.1982603 -0.23470977 -1.0249349 -1.6190984 -1.8559959
2405 0.40814537 -2.0474913 0.8058359 -0.43532574 1.4781737 0.12992418 -1.210641 -0.39041963 -1.2766848 0.15562017 0.35239273 -0.8456411 -0.6147851 0.33586526 0.42836413 -2.2031834
1975 0.3767285 0.2286127 1.4753836 0.15110599 1.0735364 0.54542387 -0.5432688 -0.6373667 -0.939183 0.66245836 -1.4717202 -1.3393862 -0.16557206 -0.055849943 0.9910287 -1.3944958
2349 0.988285 -0.7348489 2.3704276 0.20361383 1.1133732 -0.5299795 -0.032515995 -1.0855979 -0.959553 -0.1753879 1.029629 -0.29692608 0.0728288 -0.95098627 -1.4431865 -1.8015654
2476 1.8029213 0.18742554 0.6889915 -1.3637227 -0.029341636 -0.93001086 0.004724613 0.13938898 -0.07521461 0.12870608 -0.6021418 -1.6061195 0.5564942 0.8450837 -0.7217376 -1.6608739
1417 -1.4679502 -0.37270737 0.84974223 0.029546225 0.5793037 1.9742779 -0.42004174 -1.5685863 -0.7799237 0.5558945 0.73120946 -0.92235214 -0.9886765 1.5339594 -0.19283602 -0.2553137
1908 -0.7529567 -0.2881622 0.96804094 -0.4438593 0.77396333 0.76166004 -0.6413587 -0.6811825 -1.8587286 0.9623376 0.48514682 -0.3592176 -0.59028935 0.93360156 0.24303278 -0.15260452
2365 0.028977582 0.91763616 0.82967174 -0.82978404 0.75015056 -1.0627166 0.9292761 -0.52230966 -1.1573585 0.33718893 0.5253228 -0.38211286 0.62018454 1.0516044 -1.4007267 -0.8512555
2133 -0.87434906 -0.26989374 1.2354981 -1.351719 0.60277545 -0.23476937 -2.9243593 -0.3746884 0.07713228 0.17109378 -0.12775685 -0.91361535 -0.57651746 0.69907814 0.22864395 -1.3144959
1705 0.42809245 -0.72319376 0.13501813 -0.119895145 -0.24149525 0.18387055 -0.61018836 -1.7143309 -0.49824783 -0.36316577 -0.6380523 -0.12676804 -1.2202042 1.7383258 -0.9380827 -0.7109291
258 -1.1710657 -0.2428833 1.016812 -1.1019728 0.7429224 2.1408129 -0.006280014 -0.92957366 -0.006314576 -0.072957315 0.5567271 -0.6411702 0.54351556 2.9580977 -0.27956772 -0.64529604
2018 0.60106033 -0.32933536 1.1589143 0.10442313 1.080222 0.1033051 -1.0115348 -0.33126605 -2.1395614 1.3496319 0.14880076 -0.2091377 0.19107372 0.7614931 0.48435587 -0.8442577
1080 0.36797488 -0.17872089 0.27102724 -1.3941183 0.8178013 0.3653595 -1.183763 -0.94272125 -1.5973407 -0.01101023 0.90218717 -1.0811479 1.1068133 -0.14412045 0.0011443825 -0.87697256
831 0.29513335 0.41204292 0.32938337 -0.83104604 0.13005339 -0.5300823 -0.03226622 -0.28400522 -0.47984764 -1.0875179 -0.58169156 -0.6326055 0.6039959 1.6261951 -1.7792014 -1.4855887
2681 0.417459 1.0954913 0.45561418 -1.6994617 0.7404185 1.3101776 -3.1512177 -1.8305631 1.0772723 2.0635533 0.08764104 1.3078784 0.68203145 2.3582811 -1.0348481 -0.76648146
24 0.017449101 0.47526598 0.8388596 -0.8491163 -0.25541252 1.362388 0.99453396 -1.397416 -0.53536665 0.5360003 -0.7855604 -0.28752318 0.10536937 -0.48595378 -0.98787594 -1.7392678
1035 1.2329743 0.9784309 0.7540224 -0.901923 0.6634671 -0.60693663 -0.8115945 -0.22109994 -0.18018204 -0.03893497 0.34958094 -0.8734023 -0.29869008 0.11502439 -2.4600115 -0.5736535
651 0.25782782 -0.6048958 1.499863 0.508334 0.9875934 1.1531203 -1.3349807 -0.9087831 -1.3897895 -0.18164757 0.46908724 -0.14389394 -0.5142238 0.4996445 0.25094923 -0.7117639
1469 0.8871202 -0.9353453 2.426889 0.22371107 1.0642724 -0.48494133 -0.27552423 -0.9131447 -1.0352045 -0.055538975 1.0645789 -0.31707084 0.1314511 -0.8681135 -1.2299863 -1.7780219
1463 -0.38506955 -0.41287726 1.1475341 -1.2733704 0.4880843 -0.13401201 -2.8709993 -0.4224618 -0.24513601 0.085817695 -0.8363427 -0.96348685 -0.5483183 0.8275618 0.48393545 -1.3200095
1067 0.7781524 -0.80959415 0.3599667 -1.4934833 -0.19976714 -1.4146941 0.2451015 -1.1341225 -0.44968876 0.7280974 -0.31278595 -0.7363678 0.12374617 0.9707952 -1.738823 -0.7814818
885 0.0014256521 -1.2820166 2.1230917 0.43255612 0.95372814 0.24943641 -1.1448387 -0.99976313 -1.1157635 -0.20380029 0.91169286 0.12749793 -0.67657775 0.5799085 0.37084225 -1.2056772
2385 0.80333424 0.2144618 0.88782054 -0.6536656 -0.28366178 0.4861364 -0.5768043 -0.6448893 -1.7969676 0.6748442 0.011506158 -0.34430668 -1.400104 0.73906636 0.7399765 -1.4782759
155 0.24882974 -0.32839644 0.5227627 -1.9391623 1.4899569 -0.5978579 -0.013066707 0.037580267 -1.32311 -0.4378488 0.114353366 -0.61972433 1.1231558 0.9907035 -1.8971869 -1.0318809
251 -1.5340625 -0.62660617 1.877418 -1.9013891 0.313576 1.138112 0.23456399 -1.5811054 0.8486504 0.6927099 -0.22408022 -0.57375973 0.6233173 -0.22389913 -2.1543064 -1.2812698
1958 0.40843418 -0.30953893 1.3252438 0.40753454 1.3415939 0.8580172 -1.6394595 0.46235102 -0.40765667 0.65043753 -0.8689302 0.7288671 1.3467277 1.139891 -0.44579524 -1.9335116
737 -0.008519532 -1.2230197 1.0108104 -0.5608867 0.4329703 0.76095617 -0.70044166 0.21757336 -1.4529094 0.8869936 0.08221215 -1.213247 0.24968983 0.86935055 0.5665871 -0.95547
1610 1.3983412 1.0414689 1.0370148 -1.0728948 0.52970374 -0.48962125 0.071949385 -0.20575693 -0.89553845 0.70506585 -1.5599045 -0.32970095 0.41890234 0.7856106 -2.0109138 -0.7505959
2178 0.13188486 -1.077762 1.3441339 -0.48455295 0.7607051 0.13964295 -0.90131855 0.09465634 -1.893738 0.7795219 0.4063241 -0.7448838 -0.32440016 0.7246286 0.46959567 -1.0039464
1634 -0.64989567 1.0114179 -0.3781988 -1.1493756 0.40029308 0.8181292 -0.46707413 -1.5988163 1.4916958 1.9469142 -0.006972232 -0.58992636 -0.5358135 1.9941281 0.42300463 -1.3349276
1761 1.1492724 0.5657572 0.6586587 -2.339004 0.22112064 -0.25579697 0.4439209 0.19467372 -0.3872699 0.97292095 0.18636161 -0.67505234 0.47490394 1.6099257 -0.5767505 -0.60590726
2124 1.2277406 0.26450887 -0.41348588 -0.76415694 2.113748 0.9772286 -0.12205041 -2.792209 0.9058518 0.84386 1.2156014 0.055357583 -0.62845486 0.14947495 -1.3904076 -0.77880174
1849 -0.42037275 -0.45875773 0.10201541 0.48936784 1.4470097 0.607377 -0.75302094 -0.70928514 -1.2225822 1.0607144 -1.1865863 -1.978767 -0.33055863 0.13452576 -0.16451554 -1.0872542
650 0.48539674 -0.3202148 0.9370578 -0.7755069 1.2703542 -0.06088136 0.11627496 0.48453552 -0.17315578 0.50213224 0.04467327 -1.3730779 0.28329596 0.8758196 -2.683911 0.032630246
1926 -0.43328458 0.5596108 0.8437429 0.10273439 1.0471243 1.0004007 -1.7652594 -1.0385985 -0.2956936 -0.0018430739 0.36534533 -1.3950843 -0.24153534 -1.0019264 -0.4388632 -1.3487281
2216 0.29969603 0.6483672 -0.19971903 -1.9827323 1.9711536 -0.666824 0.44381633 -0.6875573 -0.8141656 0.57025164 -1.1725819 -0.5048907 -0.8799879 1.9517725 -0.73744327 -0.55947137
2240 -1.3485856 0.1072146 0.8339137 -0.770817 0.80880475 1.9033557 -0.13617656 -1.5093541 0.2603328 -0.40950942 0.837185 -0.05186711 -0.06278205 2.4827657 -0.37496245 -0.7199591
484 0.38600093 -0.09114133 0.32829016 0.01645661 -0.25635815 0.25844362 -0.334871 -1.3739359 -0.24577633 0.26025814 -0.84175915 -0.11157572 -2.2313313 1.2422645 -1.4035125 -1.2283779
854 -0.49484682 -0.5976412 0.47698045 0.52335596 0.8432028 1.3042966 0.20075104 0.0003827639 -1.0578449 0.7893973 -0.53818333 0.16257566 1.0442959 1.7601889 -0.25171325 -1.2154595
1778 -0.25835094 0.16723669 -0.050543115 0.22527935 -0.11010941 0.4000578 -0.9883078 -1.3880593 0.16046156 -0.08867095 -0.7254123 0.37408185 -0.7095725 1.2826641 -1.581692 -1.1891818
904 1.5955602 -0.6659869 1.5698723 -0.09290053 2.2332058 0.8328987 -0.66389096 0.5211213 0.06570268 0.53302765 -0.33223462 0.7748307 -1.2568063 1.4042329 -1.032149 -0.79726183
1343 -0.9708031 -0.8179076 0.068385914 -0.2927029 1.8216279 0.2301136 -0.057600107 -0.8766916 -1.1753336 0.37733528 -1.1620815 0.23420784 -0.9681481 0.41114318 -0.6091636 -1.2626077
1593 1.8772571 -0.010113019 2.012746 1.3945535 1.3533891 0.36064348 -0.4927399 -0.9570647 1.1908135 3.631515 0.61057544 -0.83863795 0.08890493 1.4911523 -0.70253235 -1.3327518
1095 0.44614825 -0.22475156 0.6245977 -0.61042625 0.20033741 -0.07016783 0.8004201 -1.8041998 -0.527228 0.5898881 0.6744047 1.2471462 0.5550647 0.6770685 -0.040087845 -1.6315573
402 -1.4095399 -0.5059162 2.0589547 -1.8676499 0.25403112 1.1435292 0.29841825 -1.2981917 0.8778805 0.75397784 0.057265405 -0.4557322 0.5080422 -0.24511321 -1.9947081 -1.4186931
2224 1.5642577 -0.040165298 4.034134 -1.8948029 1.2947111 -0.16609912 -0.8909929 -1.1345644 1.0076538 1.9785247 1.1411431 0.71085995 -0.38684365 1.0739012 0.83781135 -1.515954
1577 -0.82314986 -0.5847606 1.2812331 -1.7509457 -0.025814177 1.0749474 1.3044277 -0.7583439 0.46166536 0.7901556 0.21810067 0.18625738 -0.8818228 0.3506038 -1.8016199 -1.5171132
2249 0.7383849 0.15938571 0.26488724 -0.94381076 0.17974898 1.088155 -1.0602603 -2.5921204 1.5308985 1.703417 0.27372974 -0.474912 -0.71174866 0.75927955 -0.11153855 -0.57639784
816 0.6366731 -1.8825166 0.7080747 -0.23521605 1.7037754 0.3747511 -1.2708921 -0.33820564 -1.0967659 0.059786677 0.37948096 -0.79393834 -0.8068994 0.19948258 0.45454884 -2.0487573
1745 1.575774 0.3144572 0.38135257 -1.4039319 1.1631013 -0.54992175 -0.035044007 -0.31026036 -0.65681875 -0.27838957 0.1976187 -0.260601 0.34148994 0.85911816 -1.850746 -0.33089027
99 0.6784151 -0.360229 1.6166744 -1.4030784 1.4825611 -0.37854984 -1.3508806 -1.3557178 3.6771133 0.1129351 0.4944011 -0.9861997 -0.5731131 2.343312 -1.4808532 -1.2580612
2241 1.205229 -0.40709752 0.24869663 -0.7867151 0.7630506 0.69506115 -0.71456355 1.0993949 0.07520311 1.2599233 0.8104356 0.2397284 0.9343291 0.3053208 -1.0136496 -2.389178
996 0.38529637 0.569014 0.608692 -1.0474677 0.24250916 1.2859585 -1.5040948 -2.6987195 1.7181144 1.9706765 -0.31066734 -0.15895385 -0.63152987 1.1947595 0.05472232 -0.8947289
739 -0.05158451 0.105276495 1.9194779 0.55190754 1.6278788 1.2274201 -2.1275494 0.5477577 -0.1972739 0.24469183 -0.9435601 0.59505075 1.1535765 1.5761263 -0.79065776 -2.065893
392 1.552103 0.9657738 1.150377 0.111754775 1.4990361 -0.023356827 -1.2478689 0.14310943 0.4869716 1.1419554 -1.534238 0.602975 0.13628563 1.0775905 -0.5388299 -2.0961347
1957 1.2418324 -0.24071985 0.16565818 -0.67035913 1.1588837 0.43497083 -1.0697461 0.6318734 0.047716174 1.1274073 -0.12553522 0.04587781 1.2671386 -0.4791462 -0.69135165 -2.1647615
440 0.23672491 0.94960696 0.8252686 0.8986607 1.3826853 0.3618506 -1.3980166 0.5403808 -1.0415704 0.53238165 0.11050183 -0.6962729 -1.1547737 2.0268054 -0.07582128 -1.3434547
2351 1.7162118 1.3860191 0.4495079 -0.63007504 1.4796785 -0.48498732 0.117461644 -3.228845 0.24762708 0.28781116 0.807256 1.0409878 -0.081377625 0.48085245 -0.89709735 -2.3695061
1325 0.65081227 -0.48732883 0.9349558 -0.9699856 0.79352033 0.12368442 1.144275 -1.57577 -0.13579942 0.34810668 0.9094253 1.09994 1.2051957 1.1175066 0.22741239 -1.816381
1070 1.4068129 0.39497268 -0.16856307 -0.21355256 1.1492465 -0.4748756 -0.4520112 0.36825567 -0.0446663 -0.095831685 -0.46407148 -0.75183254 -0.5208953 1.3234963 -0.80265707 -0.92082244
2485 -0.326892 0.2369857 1.0457134 0.7547325 1.3042758 0.08349961 -1.0421836 -0.7628058 -1.1832273 -0.001847526 -1.497809 -1.3390635 -0.45819065 0.1296221 -0.340841 -1.2010192
893 -0.9598845 -1.0794572 1.1794664 1.1252494 0.012083928 -0.2152465 -0.45796326 -1.229869 0.34555978 0.38391584 0.77715135 -0.97753274 -0.08749151 2.0722625 -0.96822816 -1.3038303
186 1.4709657 -1.302617 0.14222366 -1.0523151 1.0490139 1.058569 0.7179667 -2.4688563 1.3646171 0.24272686 1.3228643 -0.82892865 1.7164066 1.9388194 -0.4466569 -1.1940998
515 -0.1176583 -0.38753888 0.64537966 -2.886828 2.103496 2.4170303 -0.9503086 -1.672375 0.21986593 -0.49362072 0.019314485 0.08522294 -0.874407 2.576099 -0.87726593 -0.06471397
623 -0.14407901 -0.3925666 0.80766064 -2.7432508 1.9467096 2.3811545 -0.9488134 -1.6777655 0.21952426 -0.60333997 0.10317241 0.025663419 -0.70489407 2.7074347 -0.79440814 -0.028379526
1920 -0.24571404 0.45007008 0.55871546 0.40998846 1.3538734 1.5696383 -1.642127 -1.0110667 -0.21883385 0.48133722 -0.33812878 -1.5709891 -0.19467528 -0.84473747 -0.048780665 -1.7041004
403 0.45847484 -0.4638513 1.3436316 -1.5340756 0.8086407 -2.0651824 0.12644917 -1.3362932 -0.39775828 1.5024 -0.66172516 -1.0396662 1.4259365 1.1333185 -1.1617615 -0.42817998
2329 -0.30249873 -0.3508931 1.7451092 -0.37970424 -0.5466299 0.8014352 -0.4171565 0.6445135 0.3346685 -0.50752616 0.634256 -1.0458922 -0.9611328 0.63711023 -1.8855202 -2.317309
1599 1.0823698 -0.45513394 1.6085243 -1.4972783 0.7017084 -1.0510539 0.55134493 -0.4723712 -1.0146959 -0.33390808 -0.63233376 -0.7724079 -0.8898302 0.5604186 -1.2807899 -0.68912655
1874 0.4694726 -0.54996854 -0.7611528 -0.8938338 1.3513703 1.5008695 0.37864006 -1.9944314 -0.14179754 0.8191391 -0.3632811 -0.25709602 0.37888762 -0.57780606 -1.5124841 -1.048498
1093 -0.7387316 0.021287005 -1.2775589 -0.37931493 3.3277483 1.3067752 -0.3251752 -0.57254833 0.35217175 -0.020329228 0.14373304 -0.88633215 1.102183 1.6204041 -1.5912755 -2.7481549
2228 -0.14578286 -0.52236027 1.5606117 -0.19325675 0.73077935 2.0080507 -0.44705373 0.20872101 -0.7682418 2.0444317 -0.85778594 -1.2556616 -0.25841022 0.13916194 0.34737647 -1.1986808
45 0.5032532 -0.100681126 0.51661134 -0.32442904 0.35922763 0.4687338 1.178684 -1.1827404 -0.9202107 1.0687599 1.3244356 0.026903473 -1.1968755 0.46958423 -0.19012994 -1.4105295
2144 0.061964523 -0.6695075 2.027765 -0.10865467 -0.35997507 1.1309074 -0.5671625 0.5292938 -0.033147972 -0.61877763 0.07919399 -1.0542542 -1.5088812 0.90648234 -2.0376582 -2.3067975
458 1.399982 0.26762965 1.6912322 1.2995005 2.4703107 0.61003315 -1.1865318 0.74586844 0.6006295 -0.28337023 0.21139374 -1.1103888 0.10722344 2.1961014 -1.2189441 -1.3471959
2058 1.9038645 0.1860078 1.2593386 -0.51019174 3.3850296 2.3590598 1.2581714 -2.2368593 0.201453 1.0780997 -1.2324015 -0.9062631 -0.6188911 2.4127164 0.97339785 -0.78486675
1909 0.30479598 -0.09541457 -0.4711794 -0.98336744 1.0984855 -0.32546204 -1.1249655 -1.1172639 -1.1235331 0.79604506 0.053090803 -0.09236131 -0.48093215 -0.39541245 0.09731941 -1.0136461
1378 1.8864057 0.21127956 1.2889676 -0.50251603 3.3832483 2.4372587 1.2574819 -2.2293675 0.16815583 1.0307086 -1.2383648 -0.9470777 -0.69629747 2.4520454 0.9936517 -0.72657937
541 1.880205 -0.42691925 1.4325267 -0.03081652 2.3478773 0.97881037 -0.69498026 0.25587392 0.91961104 0.19468874 -0.29151827 0.5259474 -1.1123627 1.3339937 -1.1688683 -1.0073415
876 0.6241686 0.7783629 0.40579134 -1.8595467 1.1815201 0.12211052 -0.20685865 0.17872575 -0.8086338 0.35904208 -0.082549796 -1.1044283 -0.021584159 0.46298215 -2.3039618 -0.22657657
2562 0.33205834 -0.10266074 1.4329705 -0.96314096 1.3856232 0.604585 -0.46732834 -1.5504255 -0.29540503 0.96412694 -0.059296127 -1.0170414 0.012529697 1.5494467 -1.2493644 -1.7165554
2173 -0.7352374 -0.35364276 3.1181655 -2.363819 1.5896859 -0.52696306 -0.10185673 0.02202131 2.1507554 0.7775882 -1.746674 -0.3813358 -0.055396754 1.2361652 0.13430479 -2.9631956
954 -1.1659333 0.78795826 3.4311244 -0.5885941 2.4995003 0.6004664 0.9675409 -2.1228817 0.8237776 1.8978342 -0.68787897 0.0958364 -1.4730268 1.8569808 -0.9491925 0.093633905
2387 -1.0943075 -0.9726609 1.5708705 0.9761961 0.9658504 -0.24560627 0.5797613 -0.6949671 0.20242253 -0.2979513 0.6933915 -0.5662017 -0.37366837 2.2421076 -0.4883433 -1.7441062
537 1.9042219 -0.14598867 1.9992931 1.3153368 1.3722231 0.13777982 -0.2659594 -1.201724 1.1622504 3.6825821 0.24767244 -0.90352523 0.23017128 1.634643 -0.5324952 -1.1880963
979 1.1346858 -0.19886327 0.02191102 -0.70844895 0.4635014 -0.04590006 -0.7887323 0.6532573 0.2761643 0.6289005 0.73809594 -0.68599445 1.1844009 0.032233685 -0.36090302 -2.1467419
873 0.18741316 -0.49262646 -0.2833492 -1.5608828 0.64536184 0.1926565 1.3052226 -0.48132843 -0.17115714 -0.21257518 -0.22233726 -1.2607801 -0.29055142 0.38791952 -1.186195 -1.2150967
103 0.40896344 -0.28107238 0.38394994 -0.020248711 -0.359672 0.4272972 -0.9571066 -1.0395899 -0.9889877 0.54592717 -0.505866 -0.14824826 -1.6957798 0.8280699 -1.451054 -0.96523744
2270 1.9688505 1.2013745 1.4787718 0.2911159 0.74226713 0.037985712 -1.06749 0.06411523 0.49772754 0.95087624 -1.4600072 0.5526407 0.07292521 1.1618536 -1.2522899 -2.0771186
91 -0.26336414 0.28890362 1.6308874 1.0588938 0.13197784 0.013782466 0.9133077 -1.2880666 0.4806912 -0.22838002 1.0786638 -0.25060567 -0.18947013 0.9414422 -1.2720984 -1.8244345
1839 0.94664973 -0.5595749 0.028822668 -0.5020768 -0.10464585 0.06416033 -1.3237348 -0.07035182 0.20280296 0.2250058 0.73505884 -1.3593037 0.808339 0.16876484 0.39680347 -2.154992
2123 -0.1521878 0.5232025 1.605164 0.97192186 -0.13622515 0.14367664 0.74504924 -1.4189986 0.16811198 -0.0373719 1.198065 -0.08272941 -0.11297487 0.87185615 -1.629625 -1.6055316
498 0.66938114 -0.092782736 0.8781916 0.0803599 1.8098447 0.24516903 -1.500313 -0.56690216 -1.4134841 0.9582982 0.30191752 -0.08328219 -0.6390641 0.1716587 0.68080693 -0.7754044
1101 1.7200366 0.48064494 2.9557145 -0.22768696 3.071451 1.1308697 0.047384657 -2.504241 1.1759995 1.2287108 0.67253274 -0.11186081 0.9855913 1.1926882 -0.21333474 0.18383947
1143 -0.25741214 -0.5701447 1.0871445 0.805737 0.18116616 0.010378652 -0.39133948 -1.9457206 -0.0024599326 -0.5846261 0.31352168 -1.780796 -0.3537652 1.3611674 0.19445042 -0.86883575
2597 1.4664707 0.5956911 -0.2166072 -1.0163088 0.8895506 -0.886035 -0.48696253 0.12560992 -0.57602453 0.1391159 0.40998718 -0.7989182 0.0071302964 1.0421814 -1.8249295 -1.2314626
1396 0.1780592 -0.22870682 1.6865246 -0.009779126 0.8503606 1.6834718 -0.3210773 -0.28997332 -0.83507013 2.092938 -0.73424244 -1.4478384 -0.5615105 0.031635057 0.95408636 -1.5195345
438 0.30122542 -0.049146358 0.99528307 -0.0728146 1.645331 1.4593322 -1.4906923 -1.3189391 -1.2887549 0.3606212 0.8972499 0.1598458 -0.16675298 0.37350154 0.3269545 -0.1389341
44 -0.30052167 -1.4948065 2.7649415 -1.4022471 2.9219015 1.5848999 -0.70843774 -0.14366354 1.2095634 2.8249266 1.2193141 -0.94356275 0.58029 0.17213781 -1.3876337 -0.33099875
591 0.21760358 0.8628121 2.6015818 0.30049178 1.0252573 0.28058517 -1.9205183 -0.2896289 0.35356212 0.5275011 2.3179698 0.1842178 0.13207936 0.02280535 -1.2161771 -2.4349828
1002 1.0132059 -0.77887625 0.43689102 -0.29547235 -0.02772227 1.6997095 -0.49450615 -1.9503512 -0.09026247 0.7468898 0.8490994 -1.362254 0.3750495 0.35335883 -0.82842094 -0.020747958
2282 0.7722333 -1.1556079 0.030274665 -0.45060238 1.5823524 0.618168 -0.9912734 -0.35630232 -0.5237198 -0.33749232 -0.026478399 -1.2802926 -0.7663789 -0.14495432 0.38171586 -1.8808455
167 -0.66397226 2.3344505 2.401542 -1.3130475 2.4230633 2.5382206 -0.6249301 -1.308952 1.772624 0.62875646 -0.28625682 0.51907414 0.0672063 1.3134152 0.32247138 -2.1546504
2667 1.0659655 -0.24598579 0.11559928 -0.48174194 0.05221489 0.6671996 0.9123727 -1.4267229 -1.047467 1.4871486 1.4110343 -0.3259485 -1.3592397 1.4471563 -0.5104376 -1.239151
1470 1.3430495 0.7813641 1.0646949 0.090655826 1.8435199 -0.12781179 -0.7323939 0.6856782 0.41778213 -0.4698289 -0.5799912 -1.0101645 -0.4838351 1.7686108 -0.64755225 -0.90452504
1620 0.3884656 0.49116194 -0.009033786 -0.5346112 0.6027777 -0.101557374 -0.28525499 0.14485241 -1.1325924 0.44730794 -0.6350291 -1.1567373 0.8958835 2.0507064 -1.400679 -0.5361878
1671 0.34940246 -0.91059005 -0.36570507 -0.36420208 0.8280474 1.2577881 -0.58874464 -1.0147314 -0.5885673 1.2320812 0.9161331 -1.3644476 0.27322546 0.68389946 0.53362954 -0.5198869
2109 0.35008937 0.35597017 1.8571597 0.19685715 1.1837816 1.0552961 -0.6212048 -0.57869244 -0.65075487 1.2901007 -1.0799133 -1.5140312 -0.8331476 -0.29809222 1.1279377 -1.56735
2094 -0.024608515 0.38066137 0.3553176 0.8132995 0.6226191 0.0938073 -0.77897835 -0.11339062 -0.82687783 -0.77195454 -0.033120528 0.05096634 -0.7769331 1.1889102 -1.4278746 -2.1718588
1262 2.015205 -0.3219852 1.3117152 -0.0023641149 -0.07147596 -0.57912827 0.39428192 -0.4854765 -0.30814627 -0.025110891 -1.0079429 -1.1902308 -0.42211318 0.29709554 -1.2105542 -1.2211789
838 -0.41572514 -1.1453252 0.42148015 -1.6177969 1.3109305 0.50432074 -0.5558486 -1.1350751 -1.1333547 -0.29358825 -0.71991813 -0.14220344 -0.0062711653 0.37356514 0.9288844 -1.6592066
1795 0.21401954 -0.46399018 0.9263473 -2.5448644 2.4198923 2.513643 -0.8859198 -1.559869 1.1068023 -0.7578867 -0.02283206 0.3402062 0.52336633 2.2593868 -0.07811003 -0.6973992
119 0.9438312 -0.54122156 1.8649778 0.71434987 2.8353703 0.7848626 -0.6293962 1.1789371 -0.656727 0.4211396 -0.27938738 0.27595803 -0.53914773 0.9137461 -1.5463338 -1.6917899
156 0.21512991 -0.42177758 0.52202576 -1.8375311 1.5066942 -0.58005124 0.019673534 0.033771828 -1.3272156 -0.43690246 0.12779866 -0.59496313 1.0422273 0.9877736 -1.7728671 -0.9723989
2077 1.3146992 -0.13646185 -0.032084595 -0.68543077 -0.087113865 0.751698 0.4011021 -1.3185008 -1.1429946 1.3641872 1.4500778 -0.40223593 -1.2158614 1.3014088 -0.40960783 -1.0885744
1666 0.6951261 -0.15803656 1.1829069 0.7337827 -0.22912656 1.2710215 0.33731744 -1.9823873 -0.4076085 1.114436 1.0074823 -0.09083927 1.0177058 0.6156218 -1.0181247 -0.7079459
1944 -0.72759205 -1.7707534 1.2274951 -1.8064427 -0.44516936 0.7894376 0.3447422 -1.7764198 0.037514098 2.1623337 0.370105 0.3090403 -0.9040317 0.27661872 -1.0781571 -1.818817
2227 -0.088952735 -1.1286585 1.5481223 -0.365114 0.63086087 1.7616156 -0.7440544 0.6258362 -0.8068266 1.7432684 -0.3000816 -0.9502009 -0.13786389 0.6331987 0.64707357 -1.5147778
2221 0.5113459 0.44966963 0.68906915 -0.95309305 0.96412367 -0.76827246 1.3108814 0.49526656 0.065523215 0.8740787 0.034895677 -1.9298934 0.4876714 0.8098765 -1.177877 -1.4740144
1240 -1.0719786 0.09223149 0.8395277 -0.8387865 0.47393182 1.9701617 0.28363994 -0.9266131 0.0034122516 0.057812974 1.20603 -0.94455266 0.24876054 2.5399773 0.16937368 -0.9772132
2157 1.4865611 -0.34980002 1.6728847 0.72389066 1.3158097 -0.2505448 0.35239434 -2.1924028 0.7654329 3.2467852 -1.33563 -0.8683425 0.73565084 2.0893238 0.117000885 -0.9636379
2169 0.61965275 0.65551 0.028869163 -1.4327769 1.2666166 0.40750778 -0.18610792 0.23241563 -0.79689443 0.96402043 -0.72167337 -1.2813241 -0.15554647 0.4496929 -3.258572 -0.8524551
964 -1.1349318 0.9317096 1.2630659 -0.8098985 0.84334743 -0.9556922 -1.7346694 -0.5509728 0.29831654 1.145442 0.43641186 -1.5260221 0.23272629 0.07297473 -0.012893212 -1.8742845
1174 0.42461804 0.063803196 1.0204405 -0.21478519 0.42423183 0.62736833 -0.68678945 -0.19594097 -1.7746291 1.6168308 0.22154723 -0.8679574 -0.8263131 0.51940846 0.48676062 -0.5841711
2113 -0.4045755 0.3429589 0.17489158 0.036706306 1.0979207 0.22449566 -0.8596452 -0.17712216 -1.1204461 0.3450534 -1.1097642 -1.7362068 0.7519198 1.6112741 -1.4218364 -0.070356764
1851 -0.78422046 0.026335716 0.65359086 0.53712106 1.0915235 -0.54005086 -0.6559162 -0.77613336 -0.9979119 0.019422788 -0.9327766 -0.73613477 -0.5915679 0.14198083 -0.0025659408 -1.5958804
243 1.3181325 0.16610542 -0.23684375 -0.82364994 0.37391913 1.5302902 -0.5763466 -0.19766697 1.9189228 1.9538893 0.32713944 -1.7531774 -0.653759 3.1580107 0.23601201 -2.4690018
2539 0.7898927 -0.15886503 0.33337638 -1.3274314 1.9292673 0.89646906 -1.1071652 0.86861765 0.6860926 2.9560635 1.1201617 0.7253684 1.1559302 1.5953437 -1.25712 -2.2007835
1787 0.10502685 -0.6919998 -0.0871513 0.19351426 -0.5086924 0.03493699 -0.5449389 -1.1233495 -0.44409144 0.08007683 -0.3696235 0.14169963 -0.44715247 0.74839485 -1.1089565 -1.8052987
901 0.028003613 0.07468157 2.2271247 -0.086623065 0.58232385 -0.5892709 -1.6821913 -0.83877856 0.16684802 -0.6483113 0.8998803 -1.2835643 0.0419567 -0.4230947 -1.0579858 -1.3405496
1901 0.7604205 -0.39464372 1.5702544 0.14191969 3.007484 0.58306336 -0.30277088 0.8877668 -0.74755573 0.29711643 -0.8876758 0.2742822 0.35364926 0.26831105 -1.1310363 -1.4898674
640 -1.0347539 0.3635964 -1.2254773 -0.25579545 2.8019776 0.9068476 -0.5684022 -0.49938145 -0.17636798 0.3207846 -0.111908235 -1.1395072 0.8686934 0.837095 -1.1433665 -3.2531822
2097 1.032595 -1.0785699 0.899016 0.9667626 1.1316369 0.35393894 0.7865867 -2.3768046 0.41784686 1.5362457 -2.4130101 0.31841 -0.03137214 0.03150771 -1.9640633 -3.2333758
1094 -1.2655826 -0.48576432 1.2007419 -1.004123 0.921888 2.0174243 -0.1856511 -1.2434082 -0.06702172 -0.32767946 0.40174884 -0.35772926 0.3420625 3.0963044 -0.23377931 -0.5672476
743 0.3269411 -0.0750286 0.98850673 0.13137709 0.67866725 0.36298174 0.8171091 -0.7707143 -2.1898 0.9360593 0.5976663 0.16593246 0.17451411 0.40090632 -0.3442224 -1.0683533
581 -0.22014308 -0.28131947 0.4127281 0.8382053 0.9764928 0.19082308 -1.238152 -0.88823336 -0.952833 0.25696778 -1.3464793 -0.45472726 -0.76379484 0.32178363 -1.1715103 -0.8066257
2679 0.20374055 0.05880829 1.1282524 -0.9702135 0.8901432 1.0671365 -1.6292106 -1.9928098 2.1141224 2.3433702 -1.2528142 0.1274807 -0.89778346 0.3244682 -0.25127167 -1.3050411
596 -0.056524385 0.24712461 -0.27364737 -0.011039324 1.5850903 1.7620919 -1.3148671 -0.07761629 -0.55117923 -0.23288608 -0.9360396 -1.9943966 -0.41670117 0.95651495 -0.6213731 -1.0940045
2305 0.2025749 -0.20332909 -0.17266318 -1.1694236 0.5691631 -0.47144917 -0.63368666 -1.9776863 -0.9050638 1.5371453 0.46619433 -0.20126419 -1.2493548 -0.51392514 0.037246384 -1.7122836
401 -0.18111636 -0.0041277036 0.46467456 -0.8545236 0.09977297 0.13274816 0.8363332 -0.6956857 0.36252972 0.58932763 0.8115296 -1.090265 -2.062255 0.11971594 -0.93270004 -1.899788
1507 -0.87240756 -0.91623217 0.48811507 0.4462443 2.2034698 0.088252895 0.0277927 -0.84413517 -0.880093 0.6855448 -1.0685787 0.22010732 -0.7240249 0.18406549 -0.9890936 -1.4347044
1051 -0.834793 -0.656777 1.4145015 0.9032474 -0.04265098 -0.28243786 -0.10597738 -1.3223923 0.35301736 0.49114537 1.4352012 -0.69405574 -0.10578299 1.7751583 -1.1126698 -1.1523621
1183 1.2794305 1.7157547 1.7884891 -0.65340877 1.8539499 0.3702157 -1.4932661 0.7541802 0.36621362 0.2906226 -1.0773604 0.55988866 0.09758042 1.3378376 -0.6689425 -1.6463383
1121 0.5342488 -1.5715655 -0.25182655 -0.40850478 0.5688244 0.26830104 -0.4533393 -1.2732288 -0.5423994 0.69870454 0.30482674 -0.6028072 0.44832346 -0.15493667 0.5256048 -1.5930452
1756 0.0774986 -0.077491246 1.0212294 -0.87559074 1.5107986 -0.79424906 0.38792905 0.3513862 -0.36638105 0.6573269 0.46668604 -1.1893866 0.32414904 0.7319104 -2.1581695 -0.3039146
1773 -0.35121134 -1.250194 0.9206053 0.74038625 -0.22183709 0.25963026 -0.7225849 -1.0436643 -0.30066016 -0.47626853 -0.3885912 -0.3604734 -0.17145568 1.5433486 -1.1789947 -0.83650345
2189 -0.19082406 0.21332014 0.52927136 0.67799324 0.9673282 0.96810526 -1.627896 -0.599679 -0.30943644 0.68983394 0.013256858 -0.8580462 -1.0363772 -0.9102445 -0.8360964 -1.478533
1395 -0.55105954 0.12107405 0.7386267 0.10386086 0.68496984 1.0054946 -2.1763334 -0.6139095 -0.31718817 0.83113235 0.50560904 -1.3034546 -1.2329658 -0.6188443 -1.2904224 -1.301366
2112 -1.3406876 -0.7162414 0.5222283 0.16729052 2.3901353 0.39279243 -0.8186704 -0.5883847 -1.0462819 0.19169106 -1.0794265 -0.46756384 -0.61772454 0.7775187 -1.0282104 -0.52865714
644 -0.37524933 0.21890506 -0.5768399 -0.084797814 1.4344347 1.1973814 -1.0882428 0.28267863 -0.3010388 -0.28781685 -0.6837249 -1.6552093 -0.5902633 1.1929048 -1.0083047 -1.0120037
12 0.8200121 0.5385889 3.6605904 -0.37419993 1.7734128 1.2291895 0.6328214 0.040760346 0.31131107 1.5214628 -0.1258136 -0.7190616 1.5266044 3.411313 0.7401276 -1.0435035
1554 -0.23414966 1.755228 1.4399996 -1.1349803 1.0180868 1.7239722 -0.539122 -2.556073 1.6852149 0.25226316 -1.8608682 -1.5161858 0.3903716 2.4860241 -2.0780692 0.092833586
606 0.72452027 -0.95775515 0.8458846 0.42412972 -0.11326561 0.06438352 0.55672985 -2.4483063 -1.000268 1.8777637 1.031063 -0.17702924 1.5011817 0.7418887 -1.1468731 -1.2172875
480 1.1814156 0.67957455 0.65204895 -1.424375 0.23311308 0.032118794 0.29506367 -0.4548502 -0.68130076 0.7884491 -0.42880282 -0.46811348 0.8985818 -0.5598604 -1.822046 -0.97465396
1307 -0.54867965 -0.6700226 1.160527 0.20447427 0.8030679 -1.0505906 0.27532694 0.81565607 -0.11400435 0.6060568 -0.39515322 -0.79884094 -0.14934236 3.2281382 -1.1393868 -1.6069883
2418 -0.62801033 0.12409859 -0.20504619 0.12231859 1.0964545 -0.25937825 -1.6874987 -1.5689763 -1.5155734 0.59839284 0.4937049 -0.6435986 0.55438626 0.16471162 -0.658518 -1.0139465
284 1.5714248 -0.0056264885 3.9428759 -1.8034432 1.24165 -0.14074868 -0.8946243 -1.0859922 0.9848231 1.900954 1.1756992 0.7167689 -0.3694673 1.0954752 0.8478902 -1.4695001
760 1.6846753 -0.27238092 1.4124769 -1.6743538 0.21353121 -0.39174926 0.5891869 -0.827249 -0.95261836 -0.17699206 -0.38120165 -1.2434697 0.026687568 -0.40571043 -1.3571535 -0.9701379
153 0.20460534 -0.48703519 0.041500285 -0.14400092 -0.3093029 0.2511941 -0.75946 -0.8457939 -0.87637335 -0.27520347 -0.56737757 -0.29394346 -0.73202324 0.7942571 -1.6470566 -1.3409184
2268 -0.09117171 0.16827953 0.39578763 -0.7903194 0.057534285 -0.19242059 -0.14864416 -1.4472392 -0.5076326 1.5143312 1.2102498 -1.0160453 -1.7277305 -0.28496668 -0.40089336 -1.5589412
548 0.19450076 -0.26600084 0.8785926 -0.8266787 -0.07270689 2.6860406 -0.6013563 0.39015886 -0.7316967 1.4869794 -0.4997966 -0.27356988 -0.18399085 0.2434655 -1.1310905 -1.0574728
1884 0.31976643 -0.8902391 0.749927 0.43791682 1.0027338 0.76278824 -0.980793 0.15117325 -0.92134 0.5979646 -0.7691028 0.48085734 1.1285627 1.6040803 0.10142298 -1.5480605
1996 0.31947806 -0.30968633 1.0631499 -0.8992951 0.66919935 0.4107037 1.1746577 -1.1041715 -0.7379241 -0.26304734 1.0642616 0.88741726 0.7757012 0.87862194 -0.21113625 -1.8161262
476 0.90551066 0.570204 0.38407433 0.4430649 0.046748284 0.5695491 0.45381916 -1.058943 -1.1040955 -0.11892506 0.050783075 0.39758867 -0.47577477 1.2640153 -1.3345479 -0.97814035
1199 1.0287102 -0.48457837 1.0663692 -1.0416753 1.2088463 -0.9263638 -0.18268995 -1.0258044 -1.5868343 -0.5615403 -0.70168257 -0.6797172 -0.88434654 0.71322757 -1.3085163 0.031170994
1388 -0.97321403 0.8630876 1.5814062 -0.51092327 0.7643966 -1.3119303 -1.6714084 -0.33577442 0.07691201 1.1592118 0.5850684 -1.4181058 0.43721414 0.21383426 0.11424327 -2.3503025
1750 0.7888152 0.6946353 0.4097118 -0.9819001 1.2202754 -0.98564446 1.1390164 -0.37442514 -0.6786223 0.3821083 -0.16896842 -1.6647291 0.2869561 1.0306628 -1.0010215 -0.84217024
1535 -0.11687919 -0.2026558 0.6818544 0.36527583 1.2777947 -0.20449597 -1.2072246 -0.65433735 -0.09740672 -0.27035314 0.2817682 -2.3347216 -0.23402849 0.25539762 0.61676913 -1.5975755
1041 0.783205 -0.39167953 0.27324966 -1.0927045 0.92326754 -1.4106243 -0.082145646 -0.71210355 0.21332978 0.015038532 -0.13448021 -0.86824876 0.092702396 1.3891864 -2.0094287 -0.45475245
2197 -0.8623741 0.644332 1.2590706 -0.56992316 0.8112508 -1.1465454 -1.6482868 -0.2013099 0.27847868 0.6885002 0.5223371 -1.5105519 0.28610367 0.08344373 -0.010630331 -2.4758558
30 0.43928686 0.26192912 0.38290167 -1.5939474 1.0033326 0.08951459 -0.9413819 -0.3432064 -1.0505396 -0.21341988 0.8156846 -1.0930611 0.99276835 -0.005416558 -0.37036493 -0.41490927
1737 0.34124172 0.82538205 -0.029644568 -1.5333432 0.9727536 -1.0297875 0.08767368 -0.09737443 -0.34203836 -0.10207744 0.25570232 -1.9095954 0.19520909 1.361425 -1.0935675 -1.2116054
408 -1.4214981 0.36461294 1.4952079 -0.58318055 0.82106906 -0.5192787 -1.8415627 -0.52601 -0.80210394 1.1612407 0.62970227 -0.7621985 0.7289748 -0.2671572 -0.27334487 -1.9792359
1534 -1.0868464 -0.8912432 2.695177 0.73462903 0.092061006 -0.11671329 -0.25996584 -1.6394095 -0.10642667 0.058028504 0.5469469 -0.7598784 -0.57970864 1.5881954 0.22928365 -1.4705287
1160 0.12483501 -0.058241516 0.8477821 -0.4275234 -0.07944888 -0.05337794 0.4398709 -1.596887 0.06323377 1.0674106 1.1416981 -1.3194954 -1.7959834 -0.21194814 -0.6693917 -1.4698118
1779 -0.13560681 -0.539013 -0.060818378 -0.11218016 -0.0630225 0.7975235 -1.095328 -0.50769186 -0.43290648 -0.11722316 -0.060574993 -0.2971385 -0.7961504 0.9573941 -1.8411807 -0.9047376
126 0.53226525 -0.2952888 -0.19410026 0.10557134 -0.33421406 0.13208407 -0.6186906 -0.8536168 -0.9464636 0.3622772 -1.0396699 -0.41071305 -0.57293266 0.84437543 -1.7073715 -1.4921343
1214 1.2600769 0.0025209133 0.16023931 -1.5442253 1.171261 -0.6450366 -0.19242166 -1.0226669 -1.4271009 -0.4190119 -0.5299331 -0.66856587 -0.29724428 0.9041694 -1.7782872 -0.13812332
111 0.8582725 0.57706 -0.043709025 -1.6277153 1.0296736 -1.0434328 0.19336574 0.18775319 -0.35424462 -0.08549041 -0.43299708 -1.5159633 0.53340465 1.4185573 -0.9374802 -1.6355338
1301 -0.49189532 0.3068751 1.5518872 -1.1893818 -0.31328416 1.0853245 0.3954432 -1.0679446 -0.6225943 1.443211 -0.17747594 -0.63774776 0.391526 -1.0421453 -0.8245881 -1.1578869
2388 0.61709195 0.9085312 0.28157496 0.177195 0.5769405 1.1981902 -0.44702178 0.33383814 -0.4201479 -0.42918488 -0.7376941 -1.8023111 -0.74273646 0.5902475 -0.37820432 -1.6275183
2059 -0.13941492 0.64349234 0.83797824 -0.5815272 1.9255273 1.2706606 -0.57194185 -0.7565391 -0.8798307 -0.02067422 1.5407958 -1.320087 0.15420464 0.20294054 0.4814277 -0.4727284
1580 -0.097991414 0.35220551 0.52012986 0.12248887 0.2064911 -0.4580411 -1.4830099 -0.9742283 0.51966965 -0.31112564 1.0789734 -1.2162558 0.091361605 -0.12586004 -0.7040802 -1.8921658
1945 -0.7783406 -1.8057421 1.1646028 -1.7386274 -0.43211848 0.7035855 0.2169549 -1.5825068 0.1435748 2.3760438 0.16310082 0.37181732 -0.16659975 0.58793026 -1.2122612 -1.7693682
428 0.41681406 0.43747696 0.47527456 -1.197371 0.46084204 1.1946955 -1.5525541 -2.5165954 1.6832513 2.1097128 -0.36906913 -0.15061666 -0.83233947 1.1475041 0.04150636 -0.8814345
1758 0.8816444 -0.19191368 0.83002275 -0.8643639 0.5090859 -1.4189748 -0.04460157 -0.2903074 -1.1827393 1.3339877 -0.46254024 -0.8963826 0.8132092 0.98083967 -0.88626873 -0.51721746
327 0.6904287 -0.6167771 1.5457276 -0.9770403 0.9195559 0.3927062 1.2859497 -1.4837952 -0.6348676 -0.28415683 0.93703514 1.2821789 1.0491948 1.3657001 -0.20905003 -1.9859682
1919 0.49274543 0.37230024 0.6543267 0.21992028 1.3060316 0.4489431 -1.2868441 -1.0628829 -1.0206865 -0.023971943 -1.6486518 -1.4180398 -0.1688404 0.2618554 0.45130786 -1.2721992
110 1.7312607 -0.63384265 1.9915688 -0.8419442 0.29622886 -0.9806953 0.56623983 -0.5262958 -0.7263845 0.35372287 -1.2523499 -1.0537492 -0.6577342 0.24461196 -1.1550999 -0.7306422
51 0.0674291 0.8332473 0.0026575676 -2.6043396 2.2466488 -0.5469384 0.10042534 -0.8364069 -0.4984062 0.76967865 -1.5588294 -0.63002396 -0.81169987 2.6403303 -0.43623665 -0.40548435
1415 1.8196976 1.149428 1.1712137 0.34067565 1.3745158 -0.12669845 -1.0052545 -0.25976008 0.5969326 1.1401699 -1.769334 0.7099277 0.11069807 1.1446215 -1.0261456 -2.1614738
2024 0.23896089 -1.2134675 2.0653152 0.29186773 1.0428897 0.65689087 -1.3427969 -0.5481199 -1.5469736 0.13428734 0.5032814 -0.23004499 -0.41418874 0.7307515 0.5638272 -1.1442146
2564 0.08827627 0.7989256 0.8483118 -0.69471085 -0.047444955 1.0010347 -0.25016797 -1.1667595 2.2632663 1.8552425 -0.3088912 -1.9761523 0.30938476 2.7539124 0.63250655 -1.7716631
2526 0.7030408 -1.274014 2.3601909 -1.928239 1.0100392 1.4926023 1.006405 -1.1040235 1.7433968 1.8292688 -1.487515 -1.4416373 -1.0663712 2.2735004 -0.7323781 -0.08010657
1129 1.737729 1.0659424 0.48269525 -0.6620144 1.3957769 -0.71799827 0.13729069 -3.1857145 0.6908988 0.37029588 0.9674001 0.958172 -0.026958494 0.44017938 -0.71117944 -2.6078813
2096 0.4837481 -1.1354841 0.46223965 0.13236283 0.5980483 0.15577757 -0.15414047 -1.3706881 -1.1350111 -0.35273823 -0.5871197 -0.299009 -0.122534975 0.2872339 -2.2548778 -0.62401795
191 0.4347703 -0.60291034 0.44655156 -0.4760985 -0.27448082 0.66273415 -0.8512452 -0.9897593 -1.6977174 0.2838948 0.18630306 -0.15808725 -1.2590965 0.74091923 -0.19260177 -0.87780213
2063 0.75896853 -0.7277301 1.5656751 -1.074704 0.76950157 0.4165803 1.3450464 -1.4698217 -0.35824245 -0.17318812 0.875732 1.4217257 0.8741201 1.377735 -0.12749952 -2.1362982
910 -0.36246318 -0.06450577 -0.2524431 -0.16693544 0.034692947 -0.00043128335 -1.6170217 -1.3352562 -0.9615575 0.25388065 -0.29684323 0.024911737 -0.57056624 0.92738384 -1.5163257 -0.7658595
877 -1.5404819 -0.54814273 2.0274143 -1.7322236 0.15622684 0.6652461 0.33672807 -1.6785687 0.85961163 0.97526497 -0.41367513 -0.4038766 0.27740514 -0.23121615 -2.1172378 -1.2791011
379 1.3261067 -0.6281187 1.7828454 0.003316334 2.547711 0.6976283 -0.44820625 1.0640938 -0.23227058 0.52556074 -0.12594144 0.042993676 -0.7734572 1.0486684 -0.93464035 -0.736322
2444 0.5600008 -0.03788717 0.9210452 -1.1837286 0.7625645 -1.5306563 0.33400124 -0.35655585 -0.85228926 1.7455336 -0.03433629 -0.7539353 1.0759246 0.47653037 -1.6355902 -0.6815928
815 0.28644657 -0.15256509 1.1131688 -0.09779322 0.8171758 0.5566769 -0.9779432 -0.7049334 -1.7730561 1.8134536 0.3207382 -0.74641263 -0.06255312 0.11603083 0.30444902 -0.25270826
809 -0.49183485 -0.42480192 1.3153758 -0.56268984 0.32607985 2.6997707 -0.6810551 0.23302844 -0.8311742 1.4522272 -0.83887124 -0.30090025 -0.060788944 0.4299517 -0.08599285 -1.164444
911 -0.7167262 -1.1493714 1.8591453 0.85069424 -0.12405647 -0.25295267 -0.053203817 -1.5621591 0.21160741 0.31729373 1.0493858 -0.9325551 -0.37843716 1.8689877 -0.4969966 -1.2200904
560 0.6500342 -1.2320464 2.3525832 -1.923133 1.0481997 1.514935 1.0641336 -1.1182587 1.7290378 1.9008813 -1.4920621 -1.4979155 -1.1374625 2.2375917 -0.7497805 -0.028281279
2636 0.947859 0.098909676 3.6867626 -1.4378921 1.2058277 -0.42364842 -1.391544 -2.7649963 0.74134994 -0.38459927 -0.56827205 0.9023318 -0.95291066 1.8571812 -0.88085294 -0.12389839
1964 -0.41364083 0.8390076 -0.07623277 -0.55895686 1.1093336 1.6451392 -0.31659344 -1.3458809 0.41957718 0.8282646 1.5764061 -1.3839928 -0.014165151 1.3236612 0.80737114 -1.0315901
194 0.39515522 0.45158762 0.6788342 -0.6523224 -0.11238559 1.1824558 -0.39711046 -0.95983016 2.1997628 1.8224438 -0.16858903 -1.9893165 0.17536731 2.9194107 0.51195943 -1.8326206
1664 1.3252171 -0.030286843 2.1922388 -0.625383 2.3134458 0.6087844 0.87559617 -2.6566656 0.25389552 1.1653621 0.49453232 1.3417608 1.6393623 1.0367804 0.08416277 -0.9358516
889 0.91367555 0.15920772 0.60190696 -1.7708616 -0.02119491 -1.014804 -0.046668347 -2.3646905 -0.594414 0.60199696 -0.7943144 -1.2373787 -0.36534977 -0.32522577 -2.6021233 -0.832044
2357 -0.6971598 0.6274892 -0.63505065 -0.8200617 0.022379344 0.5670257 0.29881006 -1.4363532 0.2964129 0.25748193 0.06987206 -1.3824973 -0.74400294 0.888323 0.588079 -2.1383564
1579 0.74807024 1.6865392 2.0848439 -0.9432782 1.7668289 0.77599674 -1.5937662 0.75253505 0.51919466 -0.08331208 -1.1170595 0.9262638 0.57915866 1.3150411 -0.9883025 -2.3270001
2530 0.20793505 -0.09972638 1.556349 -2.7908504 -0.1646164 -1.5317054 -0.36572072 -0.22439706 -0.3801577 0.6125712 -0.3841097 -0.50077516 -0.8481937 1.2037421 -1.7197679 -1.142235
1708 -0.019032247 -0.09853081 -0.15425213 -1.673116 0.714689 0.1904684 1.1491753 -0.43010998 -0.3228845 -0.46030375 -0.6679645 -0.86885 -0.15475656 0.4889421 -0.9831932 -1.357055
348 0.62430125 0.7011007 0.45650795 -2.4505155 -0.1966428 0.20139167 -1.6579437 -2.3137882 1.507923 2.5486608 -0.3186575 -0.5647824 -0.107343785 1.3694324 0.02834743 -0.9248106
20 1.960515 0.75091237 0.9804521 0.57671607 0.41985977 -0.2913677 -0.7222881 -0.04587033 0.19310187 0.70403636 -1.3878042 -0.08387152 -0.10941535 0.7497344 -1.447778 -1.6043391
2634 0.9169884 0.057481207 3.7509181 -1.459584 1.288924 -0.49927834 -1.4314196 -2.7509422 0.8031023 -0.38192993 -0.5912726 0.8706305 -1.0129424 1.8279452 -0.94467384 -0.11735257
370 1.8734751 1.273684 1.1190517 0.19829345 1.5780777 -0.37049007 -0.9434348 -0.27408072 0.8075118 1.2147564 -1.6379359 0.6112263 -0.09300078 1.1294086 -0.94591266 -2.1255066
1386 1.9966869 1.0368774 1.0673529 -1.7535994 0.6274822 1.6293316 1.6880078 -1.9737273 0.11931159 1.4442968 -2.1270585 -0.11700365 -1.36067 1.653228 -0.38773763 -1.5922482
43 -1.3514624 -0.19223118 0.9760305 -0.92873675 0.89358336 1.9601827 -0.45074424 -1.543725 0.02673304 -0.43594933 0.4729168 -0.042871784 0.05523173 2.733611 -0.2868318 -0.57877547
2425 0.6323823 -0.88603646 0.7061084 -0.31318644 0.16044924 0.8246727 -1.307841 -2.0024202 -1.1028734 -0.3813149 -1.3417064 -0.09323566 -0.2155658 1.0990616 0.723918 -1.1969734
1196 -0.433032 -0.8493103 0.7806369 0.46307233 -0.4689237 0.40030992 -0.6435552 -1.628059 0.45297232 -0.33305904 -0.89881134 -0.56141293 -1.3445932 2.1629405 -0.91104156 -1.2317008
783 -0.6642376 -1.038877 1.2165116 1.1443535 0.06715384 -0.039622325 -0.55807227 -1.7201134 0.48537883 -0.24697465 0.23311742 -1.5828811 -0.29279327 1.9942878 -0.30149105 -1.2341027
2395 -0.1166728 -0.37766403 1.7930491 -0.4230122 0.98323774 1.5814527 -0.1849798 -0.22179994 -0.9874687 2.0674045 -0.75341 -1.7992237 -0.20184352 -0.1315791 0.71602213 -1.2436303
230 0.75512546 -0.5437677 0.19118881 -0.37893286 0.25615153 -0.051063534 0.11652926 -2.3221147 -0.09617957 0.55516607 0.78415906 1.2126448 0.23161186 0.30783302 -0.2643414 -2.0087485
434 -1.2515715 0.2763813 1.4636586 -1.4347863 1.2616497 -1.0913144 -2.699114 -0.7892778 0.63349754 0.5336775 -0.04901259 -0.67850614 -0.29228246 1.1876137 0.5419824 -1.6110842
2503 0.55733985 0.09813705 0.88150346 -1.2153363 0.7557333 -1.6760094 0.5958881 -1.0076524 -0.7116324 1.3753049 -0.5870051 -0.49656507 1.2082855 0.9311078 -1.5037892 -0.59012675
2538 -0.08817503 -0.07905923 1.4362183 -0.6194518 0.26964894 1.6545533 -0.96766174 -2.5345464 1.7848155 1.6311179 -0.20850097 -0.39892623 -0.57143885 1.299905 0.8336563 -0.7969064
2009 0.19367474 0.3782909 0.6149067 0.3541043 0.87242484 0.43099418 0.50057775 -1.1846069 -2.0337925 -0.027677556 0.52192193 0.08063717 0.47971883 0.19524358 -0.6794309 -1.482805
998 -0.36862266 1.327643 1.1933893 -1.1593691 0.5933897 -0.9021317 0.77139837 -0.50745666 -1.3889724 0.12210905 0.17202011 -1.5930398 0.5437962 1.4720715 -1.6518259 -0.68246657
895 0.5134105 0.9400022 0.8767805 0.61385113 1.105688 0.60242677 -1.2001593 0.41345176 -0.8662278 0.6852466 0.1556913 -0.8833283 -1.8796667 2.5419495 0.14253622 -1.528832
277 0.17495039 -0.026345069 0.5141209 0.7532579 0.6865566 0.7297794 0.5910932 -0.67955464 -2.070115 0.6741351 -0.16294733 -0.13639326 0.23791339 0.679364 -0.34509867 -1.5661527
1102 -0.20845081 -0.28874817 0.6645714 -2.7053607 1.9942212 2.3575983 -0.79145294 -1.6897587 0.3213017 -0.50116843 0.03073127 0.09761533 -0.8462996 2.551398 -0.6998334 -0.04252801
2 0.0076839305 0.18487604 1.1959568 0.83977044 0.23765916 1.4449738 0.5921618 -1.2065071 -0.561023 0.80767614 1.1546142 0.23573835 0.7889506 0.6822252 -1.3841168 -0.9034576
2095 -0.05501944 -0.8271225 1.333265 -0.2536463 -0.24672474 0.8421462 -0.3446234 0.22908358 -0.2620196 -1.1322035 -0.13697882 -0.8362645 -1.0740099 0.7980599 -1.8577331 -2.1249597
1054 -0.6350695 -1.7559571 1.4032638 -1.9816473 -0.03802792 0.96060956 1.088974 -0.97961134 0.6316891 1.2477254 0.3550195 -0.13707705 -0.44280648 0.36917314 -1.7419461 -1.5532111
2243 1.1942981 -0.2593405 1.0077789 -0.6524688 0.33523834 0.4551247 0.5964958 0.11430786 0.56259036 1.0100025 1.2622464 0.01241235 1.3379519 0.40967953 -0.16216688 -2.665524
1984 -0.7611688 -0.62269497 1.2604903 0.17213158 1.6456143 1.720115 -1.0709294 -1.1118983 -1.5159808 0.24765936 0.5606645 0.13222381 -0.6307977 0.7236179 0.031041013 -0.49943545
2163 0.7034539 -0.13573606 0.019941596 -1.5650154 -0.13195251 0.19669014 -0.5890412 -0.15878637 -0.7719547 0.52170545 1.4659805 -0.53923136 0.86904365 0.055195056 -0.34634256 -1.6969471
725 0.20997353 1.1012 0.92280513 0.5392427 1.9080075 -0.18316135 -1.5827069 -0.097119525 -1.240469 0.62865394 0.25157312 -1.0893233 -1.2590911 0.9398337 0.16072834 -0.8535499
26 0.5503861 -0.40144253 1.4968925 -1.3903636 1.405843 -0.39754838 -1.3224894 -1.292364 3.5412893 0.10348764 0.4283785 -0.98762506 -0.52158856 2.255887 -1.463009 -1.2494328
1003 0.5351064 0.36531168 1.1905032 -2.3166704 -1.005357 0.5518407 0.2976777 -0.528476 -0.8986065 0.29903468 -0.8938853 -0.49512422 0.86602 0.37115428 -0.47423512 -1.530842
1045 0.27192435 -1.0260452 0.459689 0.72476906 -0.09159434 0.66810673 -0.6999407 -0.3984023 -0.6327103 -0.3179105 -0.75220686 -0.15123105 0.29028207 1.3817275 -1.0295061 -1.1959519
1928 -0.17084527 0.17768808 1.0701498 -1.5572457 1.1643211 1.2122787 -0.26542592 -1.4934717 -1.6019053 1.3922639 0.3412167 -1.4932525 0.31282672 -0.94205475 0.59458005 -0.70986724
394 1.6886973 1.2331027 0.4010473 -0.5142713 1.611426 -0.5411266 0.21818635 -3.1171257 0.23217334 0.21101594 0.9625416 0.9949685 -0.006893859 0.4084776 -0.6990167 -2.4118683
52 -1.1893064 -0.28582317 0.876212 -0.47228134 0.7088323 -0.3658251 -2.6874375 -0.61202025 -0.538953 1.05112 0.87879056 -1.4889512 -0.20769766 0.7998539 -0.6149329 -0.94067615
1856 0.1891936 -0.71955556 -0.032113016 -0.03127146 0.12770362 0.5344735 0.45081475 -1.2903538 -0.66418666 0.02870145 -0.89345396 -0.15269917 -0.4006996 0.5096808 -1.7991802 -0.9435071
269 -0.10559984 -0.2903179 1.3046974 -1.7713745 1.4577056 -0.06943312 0.810863 -0.9723942 0.27383235 -0.4460218 1.0811632 0.29007435 1.8014544 1.3029596 0.18391046 -2.482738
1271 -0.7587212 -0.0055545173 -1.2172287 -0.43841875 3.2181888 1.1854782 -0.36623314 -0.5530495 0.5109759 0.041953724 0.23885716 -0.8259636 1.0774083 1.6447619 -1.5379039 -2.702443
741 -0.046685953 0.65947133 0.009345572 -0.8966852 0.17363115 -0.31363603 -0.42579702 -0.43219858 -0.6041669 -1.239865 -0.76364756 -0.61814344 0.52703446 2.1252294 -1.9127357 -1.7836758
869 0.40720814 0.15292883 0.14710104 -0.71707374 -0.12278803 1.4320829 0.853213 -0.8325659 -0.4122668 0.04688493 -0.13655339 -0.24203251 0.25984603 -0.11388513 -1.1402167 -1.7960669
1846 -0.62703264 -0.049624223 -0.43425477 -0.68762565 0.057476867 0.5233698 0.67658675 -0.92591596 -0.31085774 0.25219157 -0.44689187 -1.3282281 -0.1361564 0.25899643 0.1571309 -1.7923052
1801 0.7806223 0.9467074 1.0203985 0.08424001 -0.06572134 -0.5487337 -0.8304818 -0.2013266 0.10886547 -0.3468106 0.09911085 -1.008709 -0.6015183 0.40857565 -2.233042 -1.054727
1785 -1.2030535 -0.6670075 0.24490134 0.020347903 -0.09977996 0.8257102 -0.7191714 -0.96771455 -0.3218047 -0.75137836 0.16273798 -0.14170255 -0.45716533 1.99846 -0.98783374 -1.3868046
788 0.97023 -0.28449976 1.0096573 0.060630087 -0.3072405 1.6617706 -0.27669817 -2.413775 -0.23027398 1.2104051 0.61433995 -1.5739492 0.20322755 -0.15503427 -1.0690684 -0.34158394
465 -0.42109907 0.7885832 -0.031596445 -0.39791983 0.012779191 0.9338354 0.18043886 -0.77735865 -1.338846 1.8195314 -0.15161072 -0.21670635 0.036289576 0.56293446 0.725781 -2.2384636
228 0.92758244 -0.07987078 0.103492305 -1.6057868 -0.15065922 0.38456628 0.32922384 0.053458612 -0.7712832 -0.11916882 -0.69116753 -0.89981264 0.6710138 0.98134804 -0.8640277 -0.9589731
540 0.63328505 -0.9289116 0.39028892 0.2930581 2.0944042 -0.3797943 -1.4871103 -0.11257819 -0.264693 1.269849 -1.113593 0.6607737 0.74501973 1.4092419 0.43193838 -2.228879
863 0.27265418 0.12012383 1.1168419 -0.17541622 -0.17386484 0.17622043 0.46143 -2.1184294 0.11590467 0.9311642 1.3416748 -1.7517731 -1.4984971 -0.2583612 -0.556039 -1.2877979
1290 0.28557605 0.19072066 1.9248891 -0.8562612 2.5126166 -0.48886532 0.5032568 -2.5230036 0.08705307 1.0931988 -0.43533027 1.9484981 1.3680748 2.138637 0.11206998 -1.3280673
18 -0.46163508 -0.6494046 1.0318993 -0.40301841 -0.26837164 0.8763398 -1.1286238 -0.16572407 -0.757126 -0.5032587 -0.8041402 -0.5017387 -1.2816749 1.0195891 -2.190453 -1.1358677
290 1.5632476 -0.0019315134 0.886004 -1.163672 1.0609934 -0.37388188 0.6885827 -0.11185322 -0.4991588 0.6264153 -0.4147534 -1.5469664 0.15755196 -0.611706 -1.5146787 -0.8151789
1906 -0.23161107 0.5111002 0.18574466 -0.18770109 1.2705226 1.6681778 -0.309358 -0.83747464 -0.4657361 0.60682744 1.557929 -1.1662847 0.13727038 0.8713496 0.73092616 -0.7745856
356 0.5546708 0.021024095 0.58294076 -0.1849599 1.8371863 0.27704698 -1.081364 -0.96488476 -1.6362991 1.5086758 0.49558908 -0.18412797 -0.09531932 0.7340921 1.1966262 -0.7949292
211 -0.10881188 -0.13774703 -0.06536664 -0.6808055 1.4383392 0.58235836 -0.99118125 -1.148297 -1.7503777 1.642896 0.40813473 -0.2806847 -0.39450178 0.5287634 0.6408094 -0.48565054
604 0.23500092 0.37885192 0.721502 0.26839474 1.569888 0.7888249 -1.4025509 -0.52857345 -0.53944916 0.8039746 -0.43234137 -1.5467919 -1.2580956 -0.24555726 0.7561444 -1.5957994
2614 0.7534871 -0.46497992 2.3824873 -2.4936056 0.8792525 -1.5300406 0.24638018 -0.4409928 -0.44951332 -0.13178833 -0.5425109 -0.867692 -1.6161876 0.5857536 -1.4525403 -1.0319439
898 1.6094476 -0.27385244 1.7499555 0.7826044 1.130715 -0.3604055 0.22885825 -2.1977434 0.658658 3.0132406 -1.2173258 -0.7648919 0.7193554 2.3992786 0.20318043 -0.93649274
271 -1.1681734 -1.1856955 0.6507248 0.8281378 0.9674603 0.49754044 0.22624412 -0.91665894 0.5103842 0.084327914 0.7539435 -0.801581 -0.3846855 2.412718 -0.016606452 -1.7242329
563 -0.089970954 -0.50959253 -0.0042449734 -0.39989787 -0.34953022 0.6235292 0.3122402 -0.876784 -0.6039307 -0.30960634 -0.7063278 -0.34640098 -0.2983085 0.49279165 -1.3663228 -1.5670749
2555 0.39271766 0.37062508 0.29241842 -1.0795323 0.6753131 0.29086044 1.0644248 0.63342613 -1.101365 0.6920028 1.3821561 0.00014662997 -0.6116719 1.8460869 -1.7713698 -1.7349471
1693 -1.2841045 0.8396629 1.7681395 -1.8162254 1.578042 -1.3012146 -2.4488797 -0.7706599 0.9324224 0.62638056 0.012540127 -1.2173704 -0.12507053 0.8963306 0.5446677 -1.9462836
1313 1.3756846 -1.1717561 0.02018673 -0.23960097 1.6734834 0.49993107 -1.2735312 -0.09658584 -0.26006708 0.624189 -0.24021447 0.6973651 -1.4464431 1.6890715 -1.7667415 -0.68853384
270 -0.35841766 -1.3252221 0.48838034 -1.796467 1.3019685 0.73696506 -0.18216246 -1.4849459 -0.9906442 -0.44778374 -0.8309364 -0.624494 -0.1939997 0.07041308 0.65587026 -1.483134
2553 0.78993577 0.76286864 0.80879843 -0.20568259 1.1274747 0.21824878 -0.2983463 0.73336047 -0.14842345 -0.5904413 -0.5912087 -1.860559 -0.858983 1.7408105 -0.25901595 -0.89443254
647 1.711168 -0.11469277 1.0581987 -0.47273293 2.388568 0.6908214 -1.0724505 0.18943933 -0.009856186 0.28583568 -0.2885711 0.94882816 -1.2114927 1.2959758 -1.1784003 -0.6654028
1789 -0.4078615 -0.59677076 0.72935957 0.44932187 -0.4870373 0.37464252 -0.441222 -1.8363453 -0.25901532 -0.9519683 -0.05320883 -0.90981483 -0.5647491 1.0407355 -0.9616057 -1.1359704
2306 0.21693838 -0.38089132 -0.11954581 -1.1564869 0.42179564 -0.47553086 -0.60051537 -2.3758051 -0.6967038 1.7864056 0.5713223 -0.15570292 -1.466244 -0.4614325 -0.13003856 -2.134643
1359 0.110689566 0.59106773 -0.35920426 -0.46384373 1.0218803 0.54977113 -1.5590452 -0.35655978 -0.9275554 1.16656 -1.6244705 -1.8412232 0.05559832 0.70366156 0.4210322 -1.8935319
1546 0.72286135 0.3390565 -0.114544876 -0.9604556 0.6431627 -0.2940455 -0.25350782 0.10313925 -0.62473094 0.39957014 -0.32428798 -0.7756273 -0.12623838 0.37599248 -2.1429195 -0.8326858
1382 1.1066982 -0.74811566 -0.1707343 -1.7324741 0.76248324 -0.17778897 0.09896853 -0.05651523 -0.27054825 0.3464956 1.3925858 0.25953013 0.13737766 1.1498274 0.40643224 -1.8233044
1709 0.26708072 0.72565264 0.5695729 -0.64367557 0.6012583 -0.73530656 1.0657648 -0.3548313 -0.95787054 0.11140852 0.49754825 -0.37047046 0.33651203 0.84832716 -1.0492108 -0.91339415
729 -0.104484834 -0.3375509 0.52272266 -1.1878724 0.6103698 1.1360897 1.4895822 -0.44736943 0.782935 0.7473119 -0.34890166 0.45342872 -0.02548652 0.36059603 -0.78858244 -2.191618
177 0.51669204 -0.2978821 1.4076533 -1.1585919 1.0658113 1.0840346 -1.7658981 -2.1218402 1.7762725 2.2217484 -1.2792877 0.29042405 -1.2543293 0.15113139 -0.30277732 -0.9066028
385 0.4145956 1.7268178 3.6965003 -1.6331044 0.14955574 0.58652157 -0.5596328 -0.72825533 1.1448458 0.6320054 0.9642306 -0.78287816 -1.1893431 2.992359 -0.8589957 -0.39857912
1482 -0.3360999 0.2596442 0.72176164 -0.5657971 0.95500934 0.61983556 -1.7495414 -0.4820263 -0.5784157 0.1332487 -1.8857884 -1.8010881 -0.436354 0.5378063 0.45444068 -1.3581661
698 -0.5630697 -0.2054116 1.2562871 0.7280832 -0.40369034 0.13476409 -0.41340744 -1.8648152 0.18608628 0.14950086 1.8301321 -0.86229146 -0.61359185 2.102182 -0.93754417 -1.1920283
1250 1.1213096 -0.09644595 1.508202 -1.055905 1.3304616 0.159416 1.0287694 0.72579026 0.5698483 1.0594283 -0.3135554 -2.0799754 0.3482636 0.6179701 -2.374175 -0.6353536
751 -0.58308107 0.58710545 1.3029 -0.30204314 -0.049899098 -0.49352416 -1.8642268 -0.6138497 0.14703119 0.9769499 0.3615221 -1.739574 0.7960621 -0.08119363 0.01814725 -2.1287107
1821 0.6723079 -0.33967927 0.20867164 -0.12601377 -0.43884498 0.5417422 0.39754495 -1.080996 -0.25127175 0.9255422 -0.2406799 0.008841361 0.54070723 -0.44198638 -1.2356393 -2.1167166
1251 0.3687506 -0.803728 -0.32107544 -0.076788 -0.2358625 1.0163069 -1.0381444 -0.58065504 -0.63649267 0.31073987 -0.23955432 -0.25587407 -0.019723978 0.96770895 -1.8567759 -0.85901767
14 1.2612975 -0.69208574 -0.14087184 -0.5523683 -0.064050294 1.1418073 0.36544332 -1.472122 -0.7147922 0.9737636 1.2133801 -0.46689957 -0.6810567 1.0521957 -0.5704788 -0.6902351
232 0.37350848 0.22961482 0.09079488 -0.441207 0.13201766 1.4424978 0.80863106 -0.7894808 -0.58223754 -0.18570644 -0.01614382 -0.06793097 -0.021013107 0.0034801657 -0.73309416 -1.7242172
1552 0.08934368 0.70485723 0.39417735 0.11141161 0.13652033 -0.13721465 -1.1624538 -0.9305928 0.4641393 -0.9931721 -0.37048897 0.3327683 -0.83586174 1.1685059 -1.6051488 -1.863991
1303 0.51228 -0.1634734 -0.006631574 -0.7761597 0.14147279 -0.03285214 -0.90624136 -0.026582023 0.108539306 0.25039288 1.5496235 -0.63460565 1.0523756 0.0797532 -0.41497192 -1.7551326
823 0.57705814 0.02834106 -0.0053394604 -0.9196287 0.45403698 -0.973213 0.7624278 0.045612063 0.020448834 0.8538623 0.42682457 -1.5254246 0.21113883 0.42112586 -0.82962465 -1.3257438
2220 0.5130137 0.42467535 0.684208 -1.2208875 1.369523 -0.92189753 0.86269665 0.84365356 0.11386093 0.44324622 -0.32299748 -1.7953672 0.5416956 1.1732758 -1.2389151 -1.751496
1807 0.80177724 -0.55863357 -0.13092029 -0.103996 -0.16092883 0.044853758 0.51556164 -2.0140898 -0.095012575 0.9733698 1.0940582 -1.030323 -0.14792712 0.41596588 -0.6467981 -1.0989393
1401 -1.1520073 -0.2803571 1.4446003 -1.4035791 0.9006225 2.1353252 0.106509365 -0.8866602 0.09846994 -0.29226992 0.50019646 -0.5935047 0.82447374 3.5076632 -0.66946226 -0.4332984
790 0.94716185 -0.758049 -0.4129912 -0.69200575 -0.3014199 -0.2554268 0.6537703 -2.0148063 -0.42640626 1.6585672 1.0341326 -0.14201742 0.2018066 0.8764337 -0.99655604 -1.5026479
2198 -0.8781781 0.47073895 1.2592521 -0.4352247 0.2739948 -0.46802565 -1.9809453 -1.0031625 0.14367981 0.8321212 0.626324 -1.8972061 0.31694138 -0.013052129 -0.18845172 -1.084348
512 0.6196521 -0.971017 3.0077488 0.3297747 0.8665135 -0.36134705 -0.9910596 -1.0190263 -0.39152235 0.15874448 1.5888884 -0.09328968 -0.61454153 -0.36507893 -0.53303427 -2.0913107
2186 0.4089097 -0.21481182 2.3773115 -0.00016570384 0.40433508 -0.85573053 -1.2278166 -0.8877112 -0.11601789 -0.30524382 1.1291753 -0.95183986 -0.25237235 -0.47009143 -0.8536321 -1.5536203
2509 -0.53882754 -0.11368385 0.25125772 -1.3178922 1.0014694 0.88672745 1.440032 -1.1451843 -0.10492606 0.6384389 1.3396276 -0.4762849 1.1843101 0.96840477 0.23581298 -1.5227299
935 0.28086692 -0.6741951 0.5420794 0.9115907 0.78688246 1.0195044 0.42640248 -0.10884724 -1.2247763 0.21418224 -0.73950315 0.118839286 0.651021 0.96063364 -0.4891601 -1.6258789
1399 0.09200719 -0.70443344 1.1767147 0.2260708 0.8336293 1.7689726 -0.2659275 -0.32781047 -0.86852413 2.1012886 -0.352998 -1.4044671 -0.2365468 0.27722594 1.0675431 -1.7229133
985 1.1980699 -0.14741987 0.6249766 -1.5126756 -0.040207215 0.032784674 0.6218631 -0.31421706 -1.023559 -0.32379717 0.18010353 -1.0318749 0.6009095 0.05172486 -0.84897834 -1.1987715
323 0.66651636 0.020270502 0.5989944 0.5843282 1.5490829 0.67588603 -1.7938733 -0.8587441 -1.4286562 1.4592062 0.46576998 -0.17111574 -0.21543506 0.1828082 0.12512383 -0.64453703
2668 1.1133324 -0.53903174 0.18532231 -0.31199738 0.115919545 0.8479285 0.81216145 -1.4206678 -0.9410945 1.3923085 1.3615853 -0.34183595 -1.4029645 1.4133451 -0.3363605 -1.0800527
144 1.8155781 -0.12884428 1.8745056 1.3625401 1.3554192 0.26832718 -0.48462665 -1.0160438 1.1574563 3.5497444 0.52123386 -0.77382857 0.14903939 1.4366708 -0.6311889 -1.32797
1448 0.62401956 -1.0306613 -0.5070781 -0.07393588 -0.1596202 1.0917281 -0.62563896 -0.7717531 -0.44538644 0.2373152 0.10432694 -0.5544549 -0.037014153 0.689537 -1.6009414 -0.73532647
332 -0.21900408 -0.003335436 1.5979025 0.80130637 -0.06253233 1.0387076 0.6460668 -0.89008844 -0.083946355 0.64897734 1.52784 0.018700637 0.28204557 0.7680194 -1.6795793 -1.2387782
2203 0.49568385 0.6042848 1.9703571 0.014552966 -0.13233854 -0.60040337 -1.2140242 -0.13819045 0.22122203 -0.39795983 0.6167524 -1.3166325 -0.46838593 -0.19992302 -1.9511245 -1.5609381
